~h "ey"
<BEGINHMM>
<NUMSTATES> 5
<STATE> 2
<MEAN> 39
 -1.512167e+01 -4.244256e+00 -5.096268e+00 -3.049982e+00 -2.910007e+00 -1.643448e+00 -1.869132e+00 -1.649586e+00 -1.642348e+00 -1.129618e+00 -8.474361e-01 -8.197793e-01 2.487410e+01 9.811230e-04 -3.013976e-04 2.812432e-05 -1.117286e-03 -1.110297e-03 -1.292818e-03 4.212286e-04 -1.143211e-03 -1.027634e-03 -1.047270e-03 5.306862e-04 -1.542135e-03 -8.672260e-05 7.939294e-05 1.016821e-04 -2.656159e-04 -3.759189e-04 -8.241944e-05 4.160965e-04 -1.386699e-04 1.968596e-04 1.056659e-05 -8.453516e-04 -8.895954e-04 2.162693e-04 -3.654439e-06
<VARIANCE> 39
 5.187943e+00 3.173079e+00 5.260576e+00 9.595466e+00 1.000253e+01 1.222492e+01 1.367008e+01 1.699020e+01 1.592349e+01 1.592593e+01 1.432129e+01 1.315139e+01 6.781006e-02 1.050524e-01 1.298998e-01 2.267439e-01 3.542661e-01 4.383018e-01 5.370697e-01 5.993239e-01 6.915287e-01 6.986535e-01 6.796483e-01 6.305088e-01 5.669654e-01 1.161098e-03 1.657286e-02 2.387469e-02 4.180791e-02 6.374202e-02 8.113146e-02 9.978622e-02 1.106358e-01 1.263045e-01 1.296352e-01 1.256656e-01 1.164740e-01 1.046425e-01 1.684739e-04
<GCONST> 3.899919e+01
<STATE> 3
<MEAN> 39
 -1.512167e+01 -4.244256e+00 -5.096268e+00 -3.049982e+00 -2.910007e+00 -1.643448e+00 -1.869132e+00 -1.649586e+00 -1.642348e+00 -1.129618e+00 -8.474361e-01 -8.197793e-01 2.487410e+01 9.811230e-04 -3.013976e-04 2.812432e-05 -1.117286e-03 -1.110297e-03 -1.292818e-03 4.212286e-04 -1.143211e-03 -1.027634e-03 -1.047270e-03 5.306862e-04 -1.542135e-03 -8.672260e-05 7.939294e-05 1.016821e-04 -2.656159e-04 -3.759189e-04 -8.241944e-05 4.160965e-04 -1.386699e-04 1.968596e-04 1.056659e-05 -8.453516e-04 -8.895954e-04 2.162693e-04 -3.654439e-06
<VARIANCE> 39
 5.187943e+00 3.173079e+00 5.260576e+00 9.595466e+00 1.000253e+01 1.222492e+01 1.367008e+01 1.699020e+01 1.592349e+01 1.592593e+01 1.432129e+01 1.315139e+01 6.781006e-02 1.050524e-01 1.298998e-01 2.267439e-01 3.542661e-01 4.383018e-01 5.370697e-01 5.993239e-01 6.915287e-01 6.986535e-01 6.796483e-01 6.305088e-01 5.669654e-01 1.161098e-03 1.657286e-02 2.387469e-02 4.180791e-02 6.374202e-02 8.113146e-02 9.978622e-02 1.106358e-01 1.263045e-01 1.296352e-01 1.256656e-01 1.164740e-01 1.046425e-01 1.684739e-04
<GCONST> 3.899919e+01
<STATE> 4
<MEAN> 39
 -1.512167e+01 -4.244256e+00 -5.096268e+00 -3.049982e+00 -2.910007e+00 -1.643448e+00 -1.869132e+00 -1.649586e+00 -1.642348e+00 -1.129618e+00 -8.474361e-01 -8.197793e-01 2.487410e+01 9.811230e-04 -3.013976e-04 2.812432e-05 -1.117286e-03 -1.110297e-03 -1.292818e-03 4.212286e-04 -1.143211e-03 -1.027634e-03 -1.047270e-03 5.306862e-04 -1.542135e-03 -8.672260e-05 7.939294e-05 1.016821e-04 -2.656159e-04 -3.759189e-04 -8.241944e-05 4.160965e-04 -1.386699e-04 1.968596e-04 1.056659e-05 -8.453516e-04 -8.895954e-04 2.162693e-04 -3.654439e-06
<VARIANCE> 39
 5.187943e+00 3.173079e+00 5.260576e+00 9.595466e+00 1.000253e+01 1.222492e+01 1.367008e+01 1.699020e+01 1.592349e+01 1.592593e+01 1.432129e+01 1.315139e+01 6.781006e-02 1.050524e-01 1.298998e-01 2.267439e-01 3.542661e-01 4.383018e-01 5.370697e-01 5.993239e-01 6.915287e-01 6.986535e-01 6.796483e-01 6.305088e-01 5.669654e-01 1.161098e-03 1.657286e-02 2.387469e-02 4.180791e-02 6.374202e-02 8.113146e-02 9.978622e-02 1.106358e-01 1.263045e-01 1.296352e-01 1.256656e-01 1.164740e-01 1.046425e-01 1.684739e-04
<GCONST> 3.899919e+01
<TRANSP> 5
 0.000000e+00 1.000000e+00 0.000000e+00 0.000000e+00 0.000000e+00
 0.000000e+00 6.000000e-01 4.000000e-01 0.000000e+00 0.000000e+00
 0.000000e+00 0.000000e+00 6.000000e-01 4.000000e-01 0.000000e+00
 0.000000e+00 0.000000e+00 0.000000e+00 6.000000e-01 4.000000e-01
 0.000000e+00 0.000000e+00 0.000000e+00 0.000000e+00 0.000000e+00
<ENDHMM>
~h "t"
<BEGINHMM>
<NUMSTATES> 5
<STATE> 2
<MEAN> 39
 -1.512167e+01 -4.244256e+00 -5.096268e+00 -3.049982e+00 -2.910007e+00 -1.643448e+00 -1.869132e+00 -1.649586e+00 -1.642348e+00 -1.129618e+00 -8.474361e-01 -8.197793e-01 2.487410e+01 9.811230e-04 -3.013976e-04 2.812432e-05 -1.117286e-03 -1.110297e-03 -1.292818e-03 4.212286e-04 -1.143211e-03 -1.027634e-03 -1.047270e-03 5.306862e-04 -1.542135e-03 -8.672260e-05 7.939294e-05 1.016821e-04 -2.656159e-04 -3.759189e-04 -8.241944e-05 4.160965e-04 -1.386699e-04 1.968596e-04 1.056659e-05 -8.453516e-04 -8.895954e-04 2.162693e-04 -3.654439e-06
<VARIANCE> 39
 5.187943e+00 3.173079e+00 5.260576e+00 9.595466e+00 1.000253e+01 1.222492e+01 1.367008e+01 1.699020e+01 1.592349e+01 1.592593e+01 1.432129e+01 1.315139e+01 6.781006e-02 1.050524e-01 1.298998e-01 2.267439e-01 3.542661e-01 4.383018e-01 5.370697e-01 5.993239e-01 6.915287e-01 6.986535e-01 6.796483e-01 6.305088e-01 5.669654e-01 1.161098e-03 1.657286e-02 2.387469e-02 4.180791e-02 6.374202e-02 8.113146e-02 9.978622e-02 1.106358e-01 1.263045e-01 1.296352e-01 1.256656e-01 1.164740e-01 1.046425e-01 1.684739e-04
<GCONST> 3.899919e+01
<STATE> 3
<MEAN> 39
 -1.512167e+01 -4.244256e+00 -5.096268e+00 -3.049982e+00 -2.910007e+00 -1.643448e+00 -1.869132e+00 -1.649586e+00 -1.642348e+00 -1.129618e+00 -8.474361e-01 -8.197793e-01 2.487410e+01 9.811230e-04 -3.013976e-04 2.812432e-05 -1.117286e-03 -1.110297e-03 -1.292818e-03 4.212286e-04 -1.143211e-03 -1.027634e-03 -1.047270e-03 5.306862e-04 -1.542135e-03 -8.672260e-05 7.939294e-05 1.016821e-04 -2.656159e-04 -3.759189e-04 -8.241944e-05 4.160965e-04 -1.386699e-04 1.968596e-04 1.056659e-05 -8.453516e-04 -8.895954e-04 2.162693e-04 -3.654439e-06
<VARIANCE> 39
 5.187943e+00 3.173079e+00 5.260576e+00 9.595466e+00 1.000253e+01 1.222492e+01 1.367008e+01 1.699020e+01 1.592349e+01 1.592593e+01 1.432129e+01 1.315139e+01 6.781006e-02 1.050524e-01 1.298998e-01 2.267439e-01 3.542661e-01 4.383018e-01 5.370697e-01 5.993239e-01 6.915287e-01 6.986535e-01 6.796483e-01 6.305088e-01 5.669654e-01 1.161098e-03 1.657286e-02 2.387469e-02 4.180791e-02 6.374202e-02 8.113146e-02 9.978622e-02 1.106358e-01 1.263045e-01 1.296352e-01 1.256656e-01 1.164740e-01 1.046425e-01 1.684739e-04
<GCONST> 3.899919e+01
<STATE> 4
<MEAN> 39
 -1.512167e+01 -4.244256e+00 -5.096268e+00 -3.049982e+00 -2.910007e+00 -1.643448e+00 -1.869132e+00 -1.649586e+00 -1.642348e+00 -1.129618e+00 -8.474361e-01 -8.197793e-01 2.487410e+01 9.811230e-04 -3.013976e-04 2.812432e-05 -1.117286e-03 -1.110297e-03 -1.292818e-03 4.212286e-04 -1.143211e-03 -1.027634e-03 -1.047270e-03 5.306862e-04 -1.542135e-03 -8.672260e-05 7.939294e-05 1.016821e-04 -2.656159e-04 -3.759189e-04 -8.241944e-05 4.160965e-04 -1.386699e-04 1.968596e-04 1.056659e-05 -8.453516e-04 -8.895954e-04 2.162693e-04 -3.654439e-06
<VARIANCE> 39
 5.187943e+00 3.173079e+00 5.260576e+00 9.595466e+00 1.000253e+01 1.222492e+01 1.367008e+01 1.699020e+01 1.592349e+01 1.592593e+01 1.432129e+01 1.315139e+01 6.781006e-02 1.050524e-01 1.298998e-01 2.267439e-01 3.542661e-01 4.383018e-01 5.370697e-01 5.993239e-01 6.915287e-01 6.986535e-01 6.796483e-01 6.305088e-01 5.669654e-01 1.161098e-03 1.657286e-02 2.387469e-02 4.180791e-02 6.374202e-02 8.113146e-02 9.978622e-02 1.106358e-01 1.263045e-01 1.296352e-01 1.256656e-01 1.164740e-01 1.046425e-01 1.684739e-04
<GCONST> 3.899919e+01
<TRANSP> 5
 0.000000e+00 1.000000e+00 0.000000e+00 0.000000e+00 0.000000e+00
 0.000000e+00 6.000000e-01 4.000000e-01 0.000000e+00 0.000000e+00
 0.000000e+00 0.000000e+00 6.000000e-01 4.000000e-01 0.000000e+00
 0.000000e+00 0.000000e+00 0.000000e+00 6.000000e-01 4.000000e-01
 0.000000e+00 0.000000e+00 0.000000e+00 0.000000e+00 0.000000e+00
<ENDHMM>
~h "f"
<BEGINHMM>
<NUMSTATES> 5
<STATE> 2
<MEAN> 39
 -1.512167e+01 -4.244256e+00 -5.096268e+00 -3.049982e+00 -2.910007e+00 -1.643448e+00 -1.869132e+00 -1.649586e+00 -1.642348e+00 -1.129618e+00 -8.474361e-01 -8.197793e-01 2.487410e+01 9.811230e-04 -3.013976e-04 2.812432e-05 -1.117286e-03 -1.110297e-03 -1.292818e-03 4.212286e-04 -1.143211e-03 -1.027634e-03 -1.047270e-03 5.306862e-04 -1.542135e-03 -8.672260e-05 7.939294e-05 1.016821e-04 -2.656159e-04 -3.759189e-04 -8.241944e-05 4.160965e-04 -1.386699e-04 1.968596e-04 1.056659e-05 -8.453516e-04 -8.895954e-04 2.162693e-04 -3.654439e-06
<VARIANCE> 39
 5.187943e+00 3.173079e+00 5.260576e+00 9.595466e+00 1.000253e+01 1.222492e+01 1.367008e+01 1.699020e+01 1.592349e+01 1.592593e+01 1.432129e+01 1.315139e+01 6.781006e-02 1.050524e-01 1.298998e-01 2.267439e-01 3.542661e-01 4.383018e-01 5.370697e-01 5.993239e-01 6.915287e-01 6.986535e-01 6.796483e-01 6.305088e-01 5.669654e-01 1.161098e-03 1.657286e-02 2.387469e-02 4.180791e-02 6.374202e-02 8.113146e-02 9.978622e-02 1.106358e-01 1.263045e-01 1.296352e-01 1.256656e-01 1.164740e-01 1.046425e-01 1.684739e-04
<GCONST> 3.899919e+01
<STATE> 3
<MEAN> 39
 -1.512167e+01 -4.244256e+00 -5.096268e+00 -3.049982e+00 -2.910007e+00 -1.643448e+00 -1.869132e+00 -1.649586e+00 -1.642348e+00 -1.129618e+00 -8.474361e-01 -8.197793e-01 2.487410e+01 9.811230e-04 -3.013976e-04 2.812432e-05 -1.117286e-03 -1.110297e-03 -1.292818e-03 4.212286e-04 -1.143211e-03 -1.027634e-03 -1.047270e-03 5.306862e-04 -1.542135e-03 -8.672260e-05 7.939294e-05 1.016821e-04 -2.656159e-04 -3.759189e-04 -8.241944e-05 4.160965e-04 -1.386699e-04 1.968596e-04 1.056659e-05 -8.453516e-04 -8.895954e-04 2.162693e-04 -3.654439e-06
<VARIANCE> 39
 5.187943e+00 3.173079e+00 5.260576e+00 9.595466e+00 1.000253e+01 1.222492e+01 1.367008e+01 1.699020e+01 1.592349e+01 1.592593e+01 1.432129e+01 1.315139e+01 6.781006e-02 1.050524e-01 1.298998e-01 2.267439e-01 3.542661e-01 4.383018e-01 5.370697e-01 5.993239e-01 6.915287e-01 6.986535e-01 6.796483e-01 6.305088e-01 5.669654e-01 1.161098e-03 1.657286e-02 2.387469e-02 4.180791e-02 6.374202e-02 8.113146e-02 9.978622e-02 1.106358e-01 1.263045e-01 1.296352e-01 1.256656e-01 1.164740e-01 1.046425e-01 1.684739e-04
<GCONST> 3.899919e+01
<STATE> 4
<MEAN> 39
 -1.512167e+01 -4.244256e+00 -5.096268e+00 -3.049982e+00 -2.910007e+00 -1.643448e+00 -1.869132e+00 -1.649586e+00 -1.642348e+00 -1.129618e+00 -8.474361e-01 -8.197793e-01 2.487410e+01 9.811230e-04 -3.013976e-04 2.812432e-05 -1.117286e-03 -1.110297e-03 -1.292818e-03 4.212286e-04 -1.143211e-03 -1.027634e-03 -1.047270e-03 5.306862e-04 -1.542135e-03 -8.672260e-05 7.939294e-05 1.016821e-04 -2.656159e-04 -3.759189e-04 -8.241944e-05 4.160965e-04 -1.386699e-04 1.968596e-04 1.056659e-05 -8.453516e-04 -8.895954e-04 2.162693e-04 -3.654439e-06
<VARIANCE> 39
 5.187943e+00 3.173079e+00 5.260576e+00 9.595466e+00 1.000253e+01 1.222492e+01 1.367008e+01 1.699020e+01 1.592349e+01 1.592593e+01 1.432129e+01 1.315139e+01 6.781006e-02 1.050524e-01 1.298998e-01 2.267439e-01 3.542661e-01 4.383018e-01 5.370697e-01 5.993239e-01 6.915287e-01 6.986535e-01 6.796483e-01 6.305088e-01 5.669654e-01 1.161098e-03 1.657286e-02 2.387469e-02 4.180791e-02 6.374202e-02 8.113146e-02 9.978622e-02 1.106358e-01 1.263045e-01 1.296352e-01 1.256656e-01 1.164740e-01 1.046425e-01 1.684739e-04
<GCONST> 3.899919e+01
<TRANSP> 5
 0.000000e+00 1.000000e+00 0.000000e+00 0.000000e+00 0.000000e+00
 0.000000e+00 6.000000e-01 4.000000e-01 0.000000e+00 0.000000e+00
 0.000000e+00 0.000000e+00 6.000000e-01 4.000000e-01 0.000000e+00
 0.000000e+00 0.000000e+00 0.000000e+00 6.000000e-01 4.000000e-01
 0.000000e+00 0.000000e+00 0.000000e+00 0.000000e+00 0.000000e+00
<ENDHMM>
~h "ay"
<BEGINHMM>
<NUMSTATES> 5
<STATE> 2
<MEAN> 39
 -1.512167e+01 -4.244256e+00 -5.096268e+00 -3.049982e+00 -2.910007e+00 -1.643448e+00 -1.869132e+00 -1.649586e+00 -1.642348e+00 -1.129618e+00 -8.474361e-01 -8.197793e-01 2.487410e+01 9.811230e-04 -3.013976e-04 2.812432e-05 -1.117286e-03 -1.110297e-03 -1.292818e-03 4.212286e-04 -1.143211e-03 -1.027634e-03 -1.047270e-03 5.306862e-04 -1.542135e-03 -8.672260e-05 7.939294e-05 1.016821e-04 -2.656159e-04 -3.759189e-04 -8.241944e-05 4.160965e-04 -1.386699e-04 1.968596e-04 1.056659e-05 -8.453516e-04 -8.895954e-04 2.162693e-04 -3.654439e-06
<VARIANCE> 39
 5.187943e+00 3.173079e+00 5.260576e+00 9.595466e+00 1.000253e+01 1.222492e+01 1.367008e+01 1.699020e+01 1.592349e+01 1.592593e+01 1.432129e+01 1.315139e+01 6.781006e-02 1.050524e-01 1.298998e-01 2.267439e-01 3.542661e-01 4.383018e-01 5.370697e-01 5.993239e-01 6.915287e-01 6.986535e-01 6.796483e-01 6.305088e-01 5.669654e-01 1.161098e-03 1.657286e-02 2.387469e-02 4.180791e-02 6.374202e-02 8.113146e-02 9.978622e-02 1.106358e-01 1.263045e-01 1.296352e-01 1.256656e-01 1.164740e-01 1.046425e-01 1.684739e-04
<GCONST> 3.899919e+01
<STATE> 3
<MEAN> 39
 -1.512167e+01 -4.244256e+00 -5.096268e+00 -3.049982e+00 -2.910007e+00 -1.643448e+00 -1.869132e+00 -1.649586e+00 -1.642348e+00 -1.129618e+00 -8.474361e-01 -8.197793e-01 2.487410e+01 9.811230e-04 -3.013976e-04 2.812432e-05 -1.117286e-03 -1.110297e-03 -1.292818e-03 4.212286e-04 -1.143211e-03 -1.027634e-03 -1.047270e-03 5.306862e-04 -1.542135e-03 -8.672260e-05 7.939294e-05 1.016821e-04 -2.656159e-04 -3.759189e-04 -8.241944e-05 4.160965e-04 -1.386699e-04 1.968596e-04 1.056659e-05 -8.453516e-04 -8.895954e-04 2.162693e-04 -3.654439e-06
<VARIANCE> 39
 5.187943e+00 3.173079e+00 5.260576e+00 9.595466e+00 1.000253e+01 1.222492e+01 1.367008e+01 1.699020e+01 1.592349e+01 1.592593e+01 1.432129e+01 1.315139e+01 6.781006e-02 1.050524e-01 1.298998e-01 2.267439e-01 3.542661e-01 4.383018e-01 5.370697e-01 5.993239e-01 6.915287e-01 6.986535e-01 6.796483e-01 6.305088e-01 5.669654e-01 1.161098e-03 1.657286e-02 2.387469e-02 4.180791e-02 6.374202e-02 8.113146e-02 9.978622e-02 1.106358e-01 1.263045e-01 1.296352e-01 1.256656e-01 1.164740e-01 1.046425e-01 1.684739e-04
<GCONST> 3.899919e+01
<STATE> 4
<MEAN> 39
 -1.512167e+01 -4.244256e+00 -5.096268e+00 -3.049982e+00 -2.910007e+00 -1.643448e+00 -1.869132e+00 -1.649586e+00 -1.642348e+00 -1.129618e+00 -8.474361e-01 -8.197793e-01 2.487410e+01 9.811230e-04 -3.013976e-04 2.812432e-05 -1.117286e-03 -1.110297e-03 -1.292818e-03 4.212286e-04 -1.143211e-03 -1.027634e-03 -1.047270e-03 5.306862e-04 -1.542135e-03 -8.672260e-05 7.939294e-05 1.016821e-04 -2.656159e-04 -3.759189e-04 -8.241944e-05 4.160965e-04 -1.386699e-04 1.968596e-04 1.056659e-05 -8.453516e-04 -8.895954e-04 2.162693e-04 -3.654439e-06
<VARIANCE> 39
 5.187943e+00 3.173079e+00 5.260576e+00 9.595466e+00 1.000253e+01 1.222492e+01 1.367008e+01 1.699020e+01 1.592349e+01 1.592593e+01 1.432129e+01 1.315139e+01 6.781006e-02 1.050524e-01 1.298998e-01 2.267439e-01 3.542661e-01 4.383018e-01 5.370697e-01 5.993239e-01 6.915287e-01 6.986535e-01 6.796483e-01 6.305088e-01 5.669654e-01 1.161098e-03 1.657286e-02 2.387469e-02 4.180791e-02 6.374202e-02 8.113146e-02 9.978622e-02 1.106358e-01 1.263045e-01 1.296352e-01 1.256656e-01 1.164740e-01 1.046425e-01 1.684739e-04
<GCONST> 3.899919e+01
<TRANSP> 5
 0.000000e+00 1.000000e+00 0.000000e+00 0.000000e+00 0.000000e+00
 0.000000e+00 6.000000e-01 4.000000e-01 0.000000e+00 0.000000e+00
 0.000000e+00 0.000000e+00 6.000000e-01 4.000000e-01 0.000000e+00
 0.000000e+00 0.000000e+00 0.000000e+00 6.000000e-01 4.000000e-01
 0.000000e+00 0.000000e+00 0.000000e+00 0.000000e+00 0.000000e+00
<ENDHMM>
~h "v"
<BEGINHMM>
<NUMSTATES> 5
<STATE> 2
<MEAN> 39
 -1.512167e+01 -4.244256e+00 -5.096268e+00 -3.049982e+00 -2.910007e+00 -1.643448e+00 -1.869132e+00 -1.649586e+00 -1.642348e+00 -1.129618e+00 -8.474361e-01 -8.197793e-01 2.487410e+01 9.811230e-04 -3.013976e-04 2.812432e-05 -1.117286e-03 -1.110297e-03 -1.292818e-03 4.212286e-04 -1.143211e-03 -1.027634e-03 -1.047270e-03 5.306862e-04 -1.542135e-03 -8.672260e-05 7.939294e-05 1.016821e-04 -2.656159e-04 -3.759189e-04 -8.241944e-05 4.160965e-04 -1.386699e-04 1.968596e-04 1.056659e-05 -8.453516e-04 -8.895954e-04 2.162693e-04 -3.654439e-06
<VARIANCE> 39
 5.187943e+00 3.173079e+00 5.260576e+00 9.595466e+00 1.000253e+01 1.222492e+01 1.367008e+01 1.699020e+01 1.592349e+01 1.592593e+01 1.432129e+01 1.315139e+01 6.781006e-02 1.050524e-01 1.298998e-01 2.267439e-01 3.542661e-01 4.383018e-01 5.370697e-01 5.993239e-01 6.915287e-01 6.986535e-01 6.796483e-01 6.305088e-01 5.669654e-01 1.161098e-03 1.657286e-02 2.387469e-02 4.180791e-02 6.374202e-02 8.113146e-02 9.978622e-02 1.106358e-01 1.263045e-01 1.296352e-01 1.256656e-01 1.164740e-01 1.046425e-01 1.684739e-04
<GCONST> 3.899919e+01
<STATE> 3
<MEAN> 39
 -1.512167e+01 -4.244256e+00 -5.096268e+00 -3.049982e+00 -2.910007e+00 -1.643448e+00 -1.869132e+00 -1.649586e+00 -1.642348e+00 -1.129618e+00 -8.474361e-01 -8.197793e-01 2.487410e+01 9.811230e-04 -3.013976e-04 2.812432e-05 -1.117286e-03 -1.110297e-03 -1.292818e-03 4.212286e-04 -1.143211e-03 -1.027634e-03 -1.047270e-03 5.306862e-04 -1.542135e-03 -8.672260e-05 7.939294e-05 1.016821e-04 -2.656159e-04 -3.759189e-04 -8.241944e-05 4.160965e-04 -1.386699e-04 1.968596e-04 1.056659e-05 -8.453516e-04 -8.895954e-04 2.162693e-04 -3.654439e-06
<VARIANCE> 39
 5.187943e+00 3.173079e+00 5.260576e+00 9.595466e+00 1.000253e+01 1.222492e+01 1.367008e+01 1.699020e+01 1.592349e+01 1.592593e+01 1.432129e+01 1.315139e+01 6.781006e-02 1.050524e-01 1.298998e-01 2.267439e-01 3.542661e-01 4.383018e-01 5.370697e-01 5.993239e-01 6.915287e-01 6.986535e-01 6.796483e-01 6.305088e-01 5.669654e-01 1.161098e-03 1.657286e-02 2.387469e-02 4.180791e-02 6.374202e-02 8.113146e-02 9.978622e-02 1.106358e-01 1.263045e-01 1.296352e-01 1.256656e-01 1.164740e-01 1.046425e-01 1.684739e-04
<GCONST> 3.899919e+01
<STATE> 4
<MEAN> 39
 -1.512167e+01 -4.244256e+00 -5.096268e+00 -3.049982e+00 -2.910007e+00 -1.643448e+00 -1.869132e+00 -1.649586e+00 -1.642348e+00 -1.129618e+00 -8.474361e-01 -8.197793e-01 2.487410e+01 9.811230e-04 -3.013976e-04 2.812432e-05 -1.117286e-03 -1.110297e-03 -1.292818e-03 4.212286e-04 -1.143211e-03 -1.027634e-03 -1.047270e-03 5.306862e-04 -1.542135e-03 -8.672260e-05 7.939294e-05 1.016821e-04 -2.656159e-04 -3.759189e-04 -8.241944e-05 4.160965e-04 -1.386699e-04 1.968596e-04 1.056659e-05 -8.453516e-04 -8.895954e-04 2.162693e-04 -3.654439e-06
<VARIANCE> 39
 5.187943e+00 3.173079e+00 5.260576e+00 9.595466e+00 1.000253e+01 1.222492e+01 1.367008e+01 1.699020e+01 1.592349e+01 1.592593e+01 1.432129e+01 1.315139e+01 6.781006e-02 1.050524e-01 1.298998e-01 2.267439e-01 3.542661e-01 4.383018e-01 5.370697e-01 5.993239e-01 6.915287e-01 6.986535e-01 6.796483e-01 6.305088e-01 5.669654e-01 1.161098e-03 1.657286e-02 2.387469e-02 4.180791e-02 6.374202e-02 8.113146e-02 9.978622e-02 1.106358e-01 1.263045e-01 1.296352e-01 1.256656e-01 1.164740e-01 1.046425e-01 1.684739e-04
<GCONST> 3.899919e+01
<TRANSP> 5
 0.000000e+00 1.000000e+00 0.000000e+00 0.000000e+00 0.000000e+00
 0.000000e+00 6.000000e-01 4.000000e-01 0.000000e+00 0.000000e+00
 0.000000e+00 0.000000e+00 6.000000e-01 4.000000e-01 0.000000e+00
 0.000000e+00 0.000000e+00 0.000000e+00 6.000000e-01 4.000000e-01
 0.000000e+00 0.000000e+00 0.000000e+00 0.000000e+00 0.000000e+00
<ENDHMM>
~h "ao"
<BEGINHMM>
<NUMSTATES> 5
<STATE> 2
<MEAN> 39
 -1.512167e+01 -4.244256e+00 -5.096268e+00 -3.049982e+00 -2.910007e+00 -1.643448e+00 -1.869132e+00 -1.649586e+00 -1.642348e+00 -1.129618e+00 -8.474361e-01 -8.197793e-01 2.487410e+01 9.811230e-04 -3.013976e-04 2.812432e-05 -1.117286e-03 -1.110297e-03 -1.292818e-03 4.212286e-04 -1.143211e-03 -1.027634e-03 -1.047270e-03 5.306862e-04 -1.542135e-03 -8.672260e-05 7.939294e-05 1.016821e-04 -2.656159e-04 -3.759189e-04 -8.241944e-05 4.160965e-04 -1.386699e-04 1.968596e-04 1.056659e-05 -8.453516e-04 -8.895954e-04 2.162693e-04 -3.654439e-06
<VARIANCE> 39
 5.187943e+00 3.173079e+00 5.260576e+00 9.595466e+00 1.000253e+01 1.222492e+01 1.367008e+01 1.699020e+01 1.592349e+01 1.592593e+01 1.432129e+01 1.315139e+01 6.781006e-02 1.050524e-01 1.298998e-01 2.267439e-01 3.542661e-01 4.383018e-01 5.370697e-01 5.993239e-01 6.915287e-01 6.986535e-01 6.796483e-01 6.305088e-01 5.669654e-01 1.161098e-03 1.657286e-02 2.387469e-02 4.180791e-02 6.374202e-02 8.113146e-02 9.978622e-02 1.106358e-01 1.263045e-01 1.296352e-01 1.256656e-01 1.164740e-01 1.046425e-01 1.684739e-04
<GCONST> 3.899919e+01
<STATE> 3
<MEAN> 39
 -1.512167e+01 -4.244256e+00 -5.096268e+00 -3.049982e+00 -2.910007e+00 -1.643448e+00 -1.869132e+00 -1.649586e+00 -1.642348e+00 -1.129618e+00 -8.474361e-01 -8.197793e-01 2.487410e+01 9.811230e-04 -3.013976e-04 2.812432e-05 -1.117286e-03 -1.110297e-03 -1.292818e-03 4.212286e-04 -1.143211e-03 -1.027634e-03 -1.047270e-03 5.306862e-04 -1.542135e-03 -8.672260e-05 7.939294e-05 1.016821e-04 -2.656159e-04 -3.759189e-04 -8.241944e-05 4.160965e-04 -1.386699e-04 1.968596e-04 1.056659e-05 -8.453516e-04 -8.895954e-04 2.162693e-04 -3.654439e-06
<VARIANCE> 39
 5.187943e+00 3.173079e+00 5.260576e+00 9.595466e+00 1.000253e+01 1.222492e+01 1.367008e+01 1.699020e+01 1.592349e+01 1.592593e+01 1.432129e+01 1.315139e+01 6.781006e-02 1.050524e-01 1.298998e-01 2.267439e-01 3.542661e-01 4.383018e-01 5.370697e-01 5.993239e-01 6.915287e-01 6.986535e-01 6.796483e-01 6.305088e-01 5.669654e-01 1.161098e-03 1.657286e-02 2.387469e-02 4.180791e-02 6.374202e-02 8.113146e-02 9.978622e-02 1.106358e-01 1.263045e-01 1.296352e-01 1.256656e-01 1.164740e-01 1.046425e-01 1.684739e-04
<GCONST> 3.899919e+01
<STATE> 4
<MEAN> 39
 -1.512167e+01 -4.244256e+00 -5.096268e+00 -3.049982e+00 -2.910007e+00 -1.643448e+00 -1.869132e+00 -1.649586e+00 -1.642348e+00 -1.129618e+00 -8.474361e-01 -8.197793e-01 2.487410e+01 9.811230e-04 -3.013976e-04 2.812432e-05 -1.117286e-03 -1.110297e-03 -1.292818e-03 4.212286e-04 -1.143211e-03 -1.027634e-03 -1.047270e-03 5.306862e-04 -1.542135e-03 -8.672260e-05 7.939294e-05 1.016821e-04 -2.656159e-04 -3.759189e-04 -8.241944e-05 4.160965e-04 -1.386699e-04 1.968596e-04 1.056659e-05 -8.453516e-04 -8.895954e-04 2.162693e-04 -3.654439e-06
<VARIANCE> 39
 5.187943e+00 3.173079e+00 5.260576e+00 9.595466e+00 1.000253e+01 1.222492e+01 1.367008e+01 1.699020e+01 1.592349e+01 1.592593e+01 1.432129e+01 1.315139e+01 6.781006e-02 1.050524e-01 1.298998e-01 2.267439e-01 3.542661e-01 4.383018e-01 5.370697e-01 5.993239e-01 6.915287e-01 6.986535e-01 6.796483e-01 6.305088e-01 5.669654e-01 1.161098e-03 1.657286e-02 2.387469e-02 4.180791e-02 6.374202e-02 8.113146e-02 9.978622e-02 1.106358e-01 1.263045e-01 1.296352e-01 1.256656e-01 1.164740e-01 1.046425e-01 1.684739e-04
<GCONST> 3.899919e+01
<TRANSP> 5
 0.000000e+00 1.000000e+00 0.000000e+00 0.000000e+00 0.000000e+00
 0.000000e+00 6.000000e-01 4.000000e-01 0.000000e+00 0.000000e+00
 0.000000e+00 0.000000e+00 6.000000e-01 4.000000e-01 0.000000e+00
 0.000000e+00 0.000000e+00 0.000000e+00 6.000000e-01 4.000000e-01
 0.000000e+00 0.000000e+00 0.000000e+00 0.000000e+00 0.000000e+00
<ENDHMM>
~h "r"
<BEGINHMM>
<NUMSTATES> 5
<STATE> 2
<MEAN> 39
 -1.512167e+01 -4.244256e+00 -5.096268e+00 -3.049982e+00 -2.910007e+00 -1.643448e+00 -1.869132e+00 -1.649586e+00 -1.642348e+00 -1.129618e+00 -8.474361e-01 -8.197793e-01 2.487410e+01 9.811230e-04 -3.013976e-04 2.812432e-05 -1.117286e-03 -1.110297e-03 -1.292818e-03 4.212286e-04 -1.143211e-03 -1.027634e-03 -1.047270e-03 5.306862e-04 -1.542135e-03 -8.672260e-05 7.939294e-05 1.016821e-04 -2.656159e-04 -3.759189e-04 -8.241944e-05 4.160965e-04 -1.386699e-04 1.968596e-04 1.056659e-05 -8.453516e-04 -8.895954e-04 2.162693e-04 -3.654439e-06
<VARIANCE> 39
 5.187943e+00 3.173079e+00 5.260576e+00 9.595466e+00 1.000253e+01 1.222492e+01 1.367008e+01 1.699020e+01 1.592349e+01 1.592593e+01 1.432129e+01 1.315139e+01 6.781006e-02 1.050524e-01 1.298998e-01 2.267439e-01 3.542661e-01 4.383018e-01 5.370697e-01 5.993239e-01 6.915287e-01 6.986535e-01 6.796483e-01 6.305088e-01 5.669654e-01 1.161098e-03 1.657286e-02 2.387469e-02 4.180791e-02 6.374202e-02 8.113146e-02 9.978622e-02 1.106358e-01 1.263045e-01 1.296352e-01 1.256656e-01 1.164740e-01 1.046425e-01 1.684739e-04
<GCONST> 3.899919e+01
<STATE> 3
<MEAN> 39
 -1.512167e+01 -4.244256e+00 -5.096268e+00 -3.049982e+00 -2.910007e+00 -1.643448e+00 -1.869132e+00 -1.649586e+00 -1.642348e+00 -1.129618e+00 -8.474361e-01 -8.197793e-01 2.487410e+01 9.811230e-04 -3.013976e-04 2.812432e-05 -1.117286e-03 -1.110297e-03 -1.292818e-03 4.212286e-04 -1.143211e-03 -1.027634e-03 -1.047270e-03 5.306862e-04 -1.542135e-03 -8.672260e-05 7.939294e-05 1.016821e-04 -2.656159e-04 -3.759189e-04 -8.241944e-05 4.160965e-04 -1.386699e-04 1.968596e-04 1.056659e-05 -8.453516e-04 -8.895954e-04 2.162693e-04 -3.654439e-06
<VARIANCE> 39
 5.187943e+00 3.173079e+00 5.260576e+00 9.595466e+00 1.000253e+01 1.222492e+01 1.367008e+01 1.699020e+01 1.592349e+01 1.592593e+01 1.432129e+01 1.315139e+01 6.781006e-02 1.050524e-01 1.298998e-01 2.267439e-01 3.542661e-01 4.383018e-01 5.370697e-01 5.993239e-01 6.915287e-01 6.986535e-01 6.796483e-01 6.305088e-01 5.669654e-01 1.161098e-03 1.657286e-02 2.387469e-02 4.180791e-02 6.374202e-02 8.113146e-02 9.978622e-02 1.106358e-01 1.263045e-01 1.296352e-01 1.256656e-01 1.164740e-01 1.046425e-01 1.684739e-04
<GCONST> 3.899919e+01
<STATE> 4
<MEAN> 39
 -1.512167e+01 -4.244256e+00 -5.096268e+00 -3.049982e+00 -2.910007e+00 -1.643448e+00 -1.869132e+00 -1.649586e+00 -1.642348e+00 -1.129618e+00 -8.474361e-01 -8.197793e-01 2.487410e+01 9.811230e-04 -3.013976e-04 2.812432e-05 -1.117286e-03 -1.110297e-03 -1.292818e-03 4.212286e-04 -1.143211e-03 -1.027634e-03 -1.047270e-03 5.306862e-04 -1.542135e-03 -8.672260e-05 7.939294e-05 1.016821e-04 -2.656159e-04 -3.759189e-04 -8.241944e-05 4.160965e-04 -1.386699e-04 1.968596e-04 1.056659e-05 -8.453516e-04 -8.895954e-04 2.162693e-04 -3.654439e-06
<VARIANCE> 39
 5.187943e+00 3.173079e+00 5.260576e+00 9.595466e+00 1.000253e+01 1.222492e+01 1.367008e+01 1.699020e+01 1.592349e+01 1.592593e+01 1.432129e+01 1.315139e+01 6.781006e-02 1.050524e-01 1.298998e-01 2.267439e-01 3.542661e-01 4.383018e-01 5.370697e-01 5.993239e-01 6.915287e-01 6.986535e-01 6.796483e-01 6.305088e-01 5.669654e-01 1.161098e-03 1.657286e-02 2.387469e-02 4.180791e-02 6.374202e-02 8.113146e-02 9.978622e-02 1.106358e-01 1.263045e-01 1.296352e-01 1.256656e-01 1.164740e-01 1.046425e-01 1.684739e-04
<GCONST> 3.899919e+01
<TRANSP> 5
 0.000000e+00 1.000000e+00 0.000000e+00 0.000000e+00 0.000000e+00
 0.000000e+00 6.000000e-01 4.000000e-01 0.000000e+00 0.000000e+00
 0.000000e+00 0.000000e+00 6.000000e-01 4.000000e-01 0.000000e+00
 0.000000e+00 0.000000e+00 0.000000e+00 6.000000e-01 4.000000e-01
 0.000000e+00 0.000000e+00 0.000000e+00 0.000000e+00 0.000000e+00
<ENDHMM>
~h "n"
<BEGINHMM>
<NUMSTATES> 5
<STATE> 2
<MEAN> 39
 -1.512167e+01 -4.244256e+00 -5.096268e+00 -3.049982e+00 -2.910007e+00 -1.643448e+00 -1.869132e+00 -1.649586e+00 -1.642348e+00 -1.129618e+00 -8.474361e-01 -8.197793e-01 2.487410e+01 9.811230e-04 -3.013976e-04 2.812432e-05 -1.117286e-03 -1.110297e-03 -1.292818e-03 4.212286e-04 -1.143211e-03 -1.027634e-03 -1.047270e-03 5.306862e-04 -1.542135e-03 -8.672260e-05 7.939294e-05 1.016821e-04 -2.656159e-04 -3.759189e-04 -8.241944e-05 4.160965e-04 -1.386699e-04 1.968596e-04 1.056659e-05 -8.453516e-04 -8.895954e-04 2.162693e-04 -3.654439e-06
<VARIANCE> 39
 5.187943e+00 3.173079e+00 5.260576e+00 9.595466e+00 1.000253e+01 1.222492e+01 1.367008e+01 1.699020e+01 1.592349e+01 1.592593e+01 1.432129e+01 1.315139e+01 6.781006e-02 1.050524e-01 1.298998e-01 2.267439e-01 3.542661e-01 4.383018e-01 5.370697e-01 5.993239e-01 6.915287e-01 6.986535e-01 6.796483e-01 6.305088e-01 5.669654e-01 1.161098e-03 1.657286e-02 2.387469e-02 4.180791e-02 6.374202e-02 8.113146e-02 9.978622e-02 1.106358e-01 1.263045e-01 1.296352e-01 1.256656e-01 1.164740e-01 1.046425e-01 1.684739e-04
<GCONST> 3.899919e+01
<STATE> 3
<MEAN> 39
 -1.512167e+01 -4.244256e+00 -5.096268e+00 -3.049982e+00 -2.910007e+00 -1.643448e+00 -1.869132e+00 -1.649586e+00 -1.642348e+00 -1.129618e+00 -8.474361e-01 -8.197793e-01 2.487410e+01 9.811230e-04 -3.013976e-04 2.812432e-05 -1.117286e-03 -1.110297e-03 -1.292818e-03 4.212286e-04 -1.143211e-03 -1.027634e-03 -1.047270e-03 5.306862e-04 -1.542135e-03 -8.672260e-05 7.939294e-05 1.016821e-04 -2.656159e-04 -3.759189e-04 -8.241944e-05 4.160965e-04 -1.386699e-04 1.968596e-04 1.056659e-05 -8.453516e-04 -8.895954e-04 2.162693e-04 -3.654439e-06
<VARIANCE> 39
 5.187943e+00 3.173079e+00 5.260576e+00 9.595466e+00 1.000253e+01 1.222492e+01 1.367008e+01 1.699020e+01 1.592349e+01 1.592593e+01 1.432129e+01 1.315139e+01 6.781006e-02 1.050524e-01 1.298998e-01 2.267439e-01 3.542661e-01 4.383018e-01 5.370697e-01 5.993239e-01 6.915287e-01 6.986535e-01 6.796483e-01 6.305088e-01 5.669654e-01 1.161098e-03 1.657286e-02 2.387469e-02 4.180791e-02 6.374202e-02 8.113146e-02 9.978622e-02 1.106358e-01 1.263045e-01 1.296352e-01 1.256656e-01 1.164740e-01 1.046425e-01 1.684739e-04
<GCONST> 3.899919e+01
<STATE> 4
<MEAN> 39
 -1.512167e+01 -4.244256e+00 -5.096268e+00 -3.049982e+00 -2.910007e+00 -1.643448e+00 -1.869132e+00 -1.649586e+00 -1.642348e+00 -1.129618e+00 -8.474361e-01 -8.197793e-01 2.487410e+01 9.811230e-04 -3.013976e-04 2.812432e-05 -1.117286e-03 -1.110297e-03 -1.292818e-03 4.212286e-04 -1.143211e-03 -1.027634e-03 -1.047270e-03 5.306862e-04 -1.542135e-03 -8.672260e-05 7.939294e-05 1.016821e-04 -2.656159e-04 -3.759189e-04 -8.241944e-05 4.160965e-04 -1.386699e-04 1.968596e-04 1.056659e-05 -8.453516e-04 -8.895954e-04 2.162693e-04 -3.654439e-06
<VARIANCE> 39
 5.187943e+00 3.173079e+00 5.260576e+00 9.595466e+00 1.000253e+01 1.222492e+01 1.367008e+01 1.699020e+01 1.592349e+01 1.592593e+01 1.432129e+01 1.315139e+01 6.781006e-02 1.050524e-01 1.298998e-01 2.267439e-01 3.542661e-01 4.383018e-01 5.370697e-01 5.993239e-01 6.915287e-01 6.986535e-01 6.796483e-01 6.305088e-01 5.669654e-01 1.161098e-03 1.657286e-02 2.387469e-02 4.180791e-02 6.374202e-02 8.113146e-02 9.978622e-02 1.106358e-01 1.263045e-01 1.296352e-01 1.256656e-01 1.164740e-01 1.046425e-01 1.684739e-04
<GCONST> 3.899919e+01
<TRANSP> 5
 0.000000e+00 1.000000e+00 0.000000e+00 0.000000e+00 0.000000e+00
 0.000000e+00 6.000000e-01 4.000000e-01 0.000000e+00 0.000000e+00
 0.000000e+00 0.000000e+00 6.000000e-01 4.000000e-01 0.000000e+00
 0.000000e+00 0.000000e+00 0.000000e+00 6.000000e-01 4.000000e-01
 0.000000e+00 0.000000e+00 0.000000e+00 0.000000e+00 0.000000e+00
<ENDHMM>
~h "ow"
<BEGINHMM>
<NUMSTATES> 5
<STATE> 2
<MEAN> 39
 -1.512167e+01 -4.244256e+00 -5.096268e+00 -3.049982e+00 -2.910007e+00 -1.643448e+00 -1.869132e+00 -1.649586e+00 -1.642348e+00 -1.129618e+00 -8.474361e-01 -8.197793e-01 2.487410e+01 9.811230e-04 -3.013976e-04 2.812432e-05 -1.117286e-03 -1.110297e-03 -1.292818e-03 4.212286e-04 -1.143211e-03 -1.027634e-03 -1.047270e-03 5.306862e-04 -1.542135e-03 -8.672260e-05 7.939294e-05 1.016821e-04 -2.656159e-04 -3.759189e-04 -8.241944e-05 4.160965e-04 -1.386699e-04 1.968596e-04 1.056659e-05 -8.453516e-04 -8.895954e-04 2.162693e-04 -3.654439e-06
<VARIANCE> 39
 5.187943e+00 3.173079e+00 5.260576e+00 9.595466e+00 1.000253e+01 1.222492e+01 1.367008e+01 1.699020e+01 1.592349e+01 1.592593e+01 1.432129e+01 1.315139e+01 6.781006e-02 1.050524e-01 1.298998e-01 2.267439e-01 3.542661e-01 4.383018e-01 5.370697e-01 5.993239e-01 6.915287e-01 6.986535e-01 6.796483e-01 6.305088e-01 5.669654e-01 1.161098e-03 1.657286e-02 2.387469e-02 4.180791e-02 6.374202e-02 8.113146e-02 9.978622e-02 1.106358e-01 1.263045e-01 1.296352e-01 1.256656e-01 1.164740e-01 1.046425e-01 1.684739e-04
<GCONST> 3.899919e+01
<STATE> 3
<MEAN> 39
 -1.512167e+01 -4.244256e+00 -5.096268e+00 -3.049982e+00 -2.910007e+00 -1.643448e+00 -1.869132e+00 -1.649586e+00 -1.642348e+00 -1.129618e+00 -8.474361e-01 -8.197793e-01 2.487410e+01 9.811230e-04 -3.013976e-04 2.812432e-05 -1.117286e-03 -1.110297e-03 -1.292818e-03 4.212286e-04 -1.143211e-03 -1.027634e-03 -1.047270e-03 5.306862e-04 -1.542135e-03 -8.672260e-05 7.939294e-05 1.016821e-04 -2.656159e-04 -3.759189e-04 -8.241944e-05 4.160965e-04 -1.386699e-04 1.968596e-04 1.056659e-05 -8.453516e-04 -8.895954e-04 2.162693e-04 -3.654439e-06
<VARIANCE> 39
 5.187943e+00 3.173079e+00 5.260576e+00 9.595466e+00 1.000253e+01 1.222492e+01 1.367008e+01 1.699020e+01 1.592349e+01 1.592593e+01 1.432129e+01 1.315139e+01 6.781006e-02 1.050524e-01 1.298998e-01 2.267439e-01 3.542661e-01 4.383018e-01 5.370697e-01 5.993239e-01 6.915287e-01 6.986535e-01 6.796483e-01 6.305088e-01 5.669654e-01 1.161098e-03 1.657286e-02 2.387469e-02 4.180791e-02 6.374202e-02 8.113146e-02 9.978622e-02 1.106358e-01 1.263045e-01 1.296352e-01 1.256656e-01 1.164740e-01 1.046425e-01 1.684739e-04
<GCONST> 3.899919e+01
<STATE> 4
<MEAN> 39
 -1.512167e+01 -4.244256e+00 -5.096268e+00 -3.049982e+00 -2.910007e+00 -1.643448e+00 -1.869132e+00 -1.649586e+00 -1.642348e+00 -1.129618e+00 -8.474361e-01 -8.197793e-01 2.487410e+01 9.811230e-04 -3.013976e-04 2.812432e-05 -1.117286e-03 -1.110297e-03 -1.292818e-03 4.212286e-04 -1.143211e-03 -1.027634e-03 -1.047270e-03 5.306862e-04 -1.542135e-03 -8.672260e-05 7.939294e-05 1.016821e-04 -2.656159e-04 -3.759189e-04 -8.241944e-05 4.160965e-04 -1.386699e-04 1.968596e-04 1.056659e-05 -8.453516e-04 -8.895954e-04 2.162693e-04 -3.654439e-06
<VARIANCE> 39
 5.187943e+00 3.173079e+00 5.260576e+00 9.595466e+00 1.000253e+01 1.222492e+01 1.367008e+01 1.699020e+01 1.592349e+01 1.592593e+01 1.432129e+01 1.315139e+01 6.781006e-02 1.050524e-01 1.298998e-01 2.267439e-01 3.542661e-01 4.383018e-01 5.370697e-01 5.993239e-01 6.915287e-01 6.986535e-01 6.796483e-01 6.305088e-01 5.669654e-01 1.161098e-03 1.657286e-02 2.387469e-02 4.180791e-02 6.374202e-02 8.113146e-02 9.978622e-02 1.106358e-01 1.263045e-01 1.296352e-01 1.256656e-01 1.164740e-01 1.046425e-01 1.684739e-04
<GCONST> 3.899919e+01
<TRANSP> 5
 0.000000e+00 1.000000e+00 0.000000e+00 0.000000e+00 0.000000e+00
 0.000000e+00 6.000000e-01 4.000000e-01 0.000000e+00 0.000000e+00
 0.000000e+00 0.000000e+00 6.000000e-01 4.000000e-01 0.000000e+00
 0.000000e+00 0.000000e+00 0.000000e+00 6.000000e-01 4.000000e-01
 0.000000e+00 0.000000e+00 0.000000e+00 0.000000e+00 0.000000e+00
<ENDHMM>
~h "w"
<BEGINHMM>
<NUMSTATES> 5
<STATE> 2
<MEAN> 39
 -1.512167e+01 -4.244256e+00 -5.096268e+00 -3.049982e+00 -2.910007e+00 -1.643448e+00 -1.869132e+00 -1.649586e+00 -1.642348e+00 -1.129618e+00 -8.474361e-01 -8.197793e-01 2.487410e+01 9.811230e-04 -3.013976e-04 2.812432e-05 -1.117286e-03 -1.110297e-03 -1.292818e-03 4.212286e-04 -1.143211e-03 -1.027634e-03 -1.047270e-03 5.306862e-04 -1.542135e-03 -8.672260e-05 7.939294e-05 1.016821e-04 -2.656159e-04 -3.759189e-04 -8.241944e-05 4.160965e-04 -1.386699e-04 1.968596e-04 1.056659e-05 -8.453516e-04 -8.895954e-04 2.162693e-04 -3.654439e-06
<VARIANCE> 39
 5.187943e+00 3.173079e+00 5.260576e+00 9.595466e+00 1.000253e+01 1.222492e+01 1.367008e+01 1.699020e+01 1.592349e+01 1.592593e+01 1.432129e+01 1.315139e+01 6.781006e-02 1.050524e-01 1.298998e-01 2.267439e-01 3.542661e-01 4.383018e-01 5.370697e-01 5.993239e-01 6.915287e-01 6.986535e-01 6.796483e-01 6.305088e-01 5.669654e-01 1.161098e-03 1.657286e-02 2.387469e-02 4.180791e-02 6.374202e-02 8.113146e-02 9.978622e-02 1.106358e-01 1.263045e-01 1.296352e-01 1.256656e-01 1.164740e-01 1.046425e-01 1.684739e-04
<GCONST> 3.899919e+01
<STATE> 3
<MEAN> 39
 -1.512167e+01 -4.244256e+00 -5.096268e+00 -3.049982e+00 -2.910007e+00 -1.643448e+00 -1.869132e+00 -1.649586e+00 -1.642348e+00 -1.129618e+00 -8.474361e-01 -8.197793e-01 2.487410e+01 9.811230e-04 -3.013976e-04 2.812432e-05 -1.117286e-03 -1.110297e-03 -1.292818e-03 4.212286e-04 -1.143211e-03 -1.027634e-03 -1.047270e-03 5.306862e-04 -1.542135e-03 -8.672260e-05 7.939294e-05 1.016821e-04 -2.656159e-04 -3.759189e-04 -8.241944e-05 4.160965e-04 -1.386699e-04 1.968596e-04 1.056659e-05 -8.453516e-04 -8.895954e-04 2.162693e-04 -3.654439e-06
<VARIANCE> 39
 5.187943e+00 3.173079e+00 5.260576e+00 9.595466e+00 1.000253e+01 1.222492e+01 1.367008e+01 1.699020e+01 1.592349e+01 1.592593e+01 1.432129e+01 1.315139e+01 6.781006e-02 1.050524e-01 1.298998e-01 2.267439e-01 3.542661e-01 4.383018e-01 5.370697e-01 5.993239e-01 6.915287e-01 6.986535e-01 6.796483e-01 6.305088e-01 5.669654e-01 1.161098e-03 1.657286e-02 2.387469e-02 4.180791e-02 6.374202e-02 8.113146e-02 9.978622e-02 1.106358e-01 1.263045e-01 1.296352e-01 1.256656e-01 1.164740e-01 1.046425e-01 1.684739e-04
<GCONST> 3.899919e+01
<STATE> 4
<MEAN> 39
 -1.512167e+01 -4.244256e+00 -5.096268e+00 -3.049982e+00 -2.910007e+00 -1.643448e+00 -1.869132e+00 -1.649586e+00 -1.642348e+00 -1.129618e+00 -8.474361e-01 -8.197793e-01 2.487410e+01 9.811230e-04 -3.013976e-04 2.812432e-05 -1.117286e-03 -1.110297e-03 -1.292818e-03 4.212286e-04 -1.143211e-03 -1.027634e-03 -1.047270e-03 5.306862e-04 -1.542135e-03 -8.672260e-05 7.939294e-05 1.016821e-04 -2.656159e-04 -3.759189e-04 -8.241944e-05 4.160965e-04 -1.386699e-04 1.968596e-04 1.056659e-05 -8.453516e-04 -8.895954e-04 2.162693e-04 -3.654439e-06
<VARIANCE> 39
 5.187943e+00 3.173079e+00 5.260576e+00 9.595466e+00 1.000253e+01 1.222492e+01 1.367008e+01 1.699020e+01 1.592349e+01 1.592593e+01 1.432129e+01 1.315139e+01 6.781006e-02 1.050524e-01 1.298998e-01 2.267439e-01 3.542661e-01 4.383018e-01 5.370697e-01 5.993239e-01 6.915287e-01 6.986535e-01 6.796483e-01 6.305088e-01 5.669654e-01 1.161098e-03 1.657286e-02 2.387469e-02 4.180791e-02 6.374202e-02 8.113146e-02 9.978622e-02 1.106358e-01 1.263045e-01 1.296352e-01 1.256656e-01 1.164740e-01 1.046425e-01 1.684739e-04
<GCONST> 3.899919e+01
<TRANSP> 5
 0.000000e+00 1.000000e+00 0.000000e+00 0.000000e+00 0.000000e+00
 0.000000e+00 6.000000e-01 4.000000e-01 0.000000e+00 0.000000e+00
 0.000000e+00 0.000000e+00 6.000000e-01 4.000000e-01 0.000000e+00
 0.000000e+00 0.000000e+00 0.000000e+00 6.000000e-01 4.000000e-01
 0.000000e+00 0.000000e+00 0.000000e+00 0.000000e+00 0.000000e+00
<ENDHMM>
~h "ah"
<BEGINHMM>
<NUMSTATES> 5
<STATE> 2
<MEAN> 39
 -1.512167e+01 -4.244256e+00 -5.096268e+00 -3.049982e+00 -2.910007e+00 -1.643448e+00 -1.869132e+00 -1.649586e+00 -1.642348e+00 -1.129618e+00 -8.474361e-01 -8.197793e-01 2.487410e+01 9.811230e-04 -3.013976e-04 2.812432e-05 -1.117286e-03 -1.110297e-03 -1.292818e-03 4.212286e-04 -1.143211e-03 -1.027634e-03 -1.047270e-03 5.306862e-04 -1.542135e-03 -8.672260e-05 7.939294e-05 1.016821e-04 -2.656159e-04 -3.759189e-04 -8.241944e-05 4.160965e-04 -1.386699e-04 1.968596e-04 1.056659e-05 -8.453516e-04 -8.895954e-04 2.162693e-04 -3.654439e-06
<VARIANCE> 39
 5.187943e+00 3.173079e+00 5.260576e+00 9.595466e+00 1.000253e+01 1.222492e+01 1.367008e+01 1.699020e+01 1.592349e+01 1.592593e+01 1.432129e+01 1.315139e+01 6.781006e-02 1.050524e-01 1.298998e-01 2.267439e-01 3.542661e-01 4.383018e-01 5.370697e-01 5.993239e-01 6.915287e-01 6.986535e-01 6.796483e-01 6.305088e-01 5.669654e-01 1.161098e-03 1.657286e-02 2.387469e-02 4.180791e-02 6.374202e-02 8.113146e-02 9.978622e-02 1.106358e-01 1.263045e-01 1.296352e-01 1.256656e-01 1.164740e-01 1.046425e-01 1.684739e-04
<GCONST> 3.899919e+01
<STATE> 3
<MEAN> 39
 -1.512167e+01 -4.244256e+00 -5.096268e+00 -3.049982e+00 -2.910007e+00 -1.643448e+00 -1.869132e+00 -1.649586e+00 -1.642348e+00 -1.129618e+00 -8.474361e-01 -8.197793e-01 2.487410e+01 9.811230e-04 -3.013976e-04 2.812432e-05 -1.117286e-03 -1.110297e-03 -1.292818e-03 4.212286e-04 -1.143211e-03 -1.027634e-03 -1.047270e-03 5.306862e-04 -1.542135e-03 -8.672260e-05 7.939294e-05 1.016821e-04 -2.656159e-04 -3.759189e-04 -8.241944e-05 4.160965e-04 -1.386699e-04 1.968596e-04 1.056659e-05 -8.453516e-04 -8.895954e-04 2.162693e-04 -3.654439e-06
<VARIANCE> 39
 5.187943e+00 3.173079e+00 5.260576e+00 9.595466e+00 1.000253e+01 1.222492e+01 1.367008e+01 1.699020e+01 1.592349e+01 1.592593e+01 1.432129e+01 1.315139e+01 6.781006e-02 1.050524e-01 1.298998e-01 2.267439e-01 3.542661e-01 4.383018e-01 5.370697e-01 5.993239e-01 6.915287e-01 6.986535e-01 6.796483e-01 6.305088e-01 5.669654e-01 1.161098e-03 1.657286e-02 2.387469e-02 4.180791e-02 6.374202e-02 8.113146e-02 9.978622e-02 1.106358e-01 1.263045e-01 1.296352e-01 1.256656e-01 1.164740e-01 1.046425e-01 1.684739e-04
<GCONST> 3.899919e+01
<STATE> 4
<MEAN> 39
 -1.512167e+01 -4.244256e+00 -5.096268e+00 -3.049982e+00 -2.910007e+00 -1.643448e+00 -1.869132e+00 -1.649586e+00 -1.642348e+00 -1.129618e+00 -8.474361e-01 -8.197793e-01 2.487410e+01 9.811230e-04 -3.013976e-04 2.812432e-05 -1.117286e-03 -1.110297e-03 -1.292818e-03 4.212286e-04 -1.143211e-03 -1.027634e-03 -1.047270e-03 5.306862e-04 -1.542135e-03 -8.672260e-05 7.939294e-05 1.016821e-04 -2.656159e-04 -3.759189e-04 -8.241944e-05 4.160965e-04 -1.386699e-04 1.968596e-04 1.056659e-05 -8.453516e-04 -8.895954e-04 2.162693e-04 -3.654439e-06
<VARIANCE> 39
 5.187943e+00 3.173079e+00 5.260576e+00 9.595466e+00 1.000253e+01 1.222492e+01 1.367008e+01 1.699020e+01 1.592349e+01 1.592593e+01 1.432129e+01 1.315139e+01 6.781006e-02 1.050524e-01 1.298998e-01 2.267439e-01 3.542661e-01 4.383018e-01 5.370697e-01 5.993239e-01 6.915287e-01 6.986535e-01 6.796483e-01 6.305088e-01 5.669654e-01 1.161098e-03 1.657286e-02 2.387469e-02 4.180791e-02 6.374202e-02 8.113146e-02 9.978622e-02 1.106358e-01 1.263045e-01 1.296352e-01 1.256656e-01 1.164740e-01 1.046425e-01 1.684739e-04
<GCONST> 3.899919e+01
<TRANSP> 5
 0.000000e+00 1.000000e+00 0.000000e+00 0.000000e+00 0.000000e+00
 0.000000e+00 6.000000e-01 4.000000e-01 0.000000e+00 0.000000e+00
 0.000000e+00 0.000000e+00 6.000000e-01 4.000000e-01 0.000000e+00
 0.000000e+00 0.000000e+00 0.000000e+00 6.000000e-01 4.000000e-01
 0.000000e+00 0.000000e+00 0.000000e+00 0.000000e+00 0.000000e+00
<ENDHMM>
~h "s"
<BEGINHMM>
<NUMSTATES> 5
<STATE> 2
<MEAN> 39
 -1.512167e+01 -4.244256e+00 -5.096268e+00 -3.049982e+00 -2.910007e+00 -1.643448e+00 -1.869132e+00 -1.649586e+00 -1.642348e+00 -1.129618e+00 -8.474361e-01 -8.197793e-01 2.487410e+01 9.811230e-04 -3.013976e-04 2.812432e-05 -1.117286e-03 -1.110297e-03 -1.292818e-03 4.212286e-04 -1.143211e-03 -1.027634e-03 -1.047270e-03 5.306862e-04 -1.542135e-03 -8.672260e-05 7.939294e-05 1.016821e-04 -2.656159e-04 -3.759189e-04 -8.241944e-05 4.160965e-04 -1.386699e-04 1.968596e-04 1.056659e-05 -8.453516e-04 -8.895954e-04 2.162693e-04 -3.654439e-06
<VARIANCE> 39
 5.187943e+00 3.173079e+00 5.260576e+00 9.595466e+00 1.000253e+01 1.222492e+01 1.367008e+01 1.699020e+01 1.592349e+01 1.592593e+01 1.432129e+01 1.315139e+01 6.781006e-02 1.050524e-01 1.298998e-01 2.267439e-01 3.542661e-01 4.383018e-01 5.370697e-01 5.993239e-01 6.915287e-01 6.986535e-01 6.796483e-01 6.305088e-01 5.669654e-01 1.161098e-03 1.657286e-02 2.387469e-02 4.180791e-02 6.374202e-02 8.113146e-02 9.978622e-02 1.106358e-01 1.263045e-01 1.296352e-01 1.256656e-01 1.164740e-01 1.046425e-01 1.684739e-04
<GCONST> 3.899919e+01
<STATE> 3
<MEAN> 39
 -1.512167e+01 -4.244256e+00 -5.096268e+00 -3.049982e+00 -2.910007e+00 -1.643448e+00 -1.869132e+00 -1.649586e+00 -1.642348e+00 -1.129618e+00 -8.474361e-01 -8.197793e-01 2.487410e+01 9.811230e-04 -3.013976e-04 2.812432e-05 -1.117286e-03 -1.110297e-03 -1.292818e-03 4.212286e-04 -1.143211e-03 -1.027634e-03 -1.047270e-03 5.306862e-04 -1.542135e-03 -8.672260e-05 7.939294e-05 1.016821e-04 -2.656159e-04 -3.759189e-04 -8.241944e-05 4.160965e-04 -1.386699e-04 1.968596e-04 1.056659e-05 -8.453516e-04 -8.895954e-04 2.162693e-04 -3.654439e-06
<VARIANCE> 39
 5.187943e+00 3.173079e+00 5.260576e+00 9.595466e+00 1.000253e+01 1.222492e+01 1.367008e+01 1.699020e+01 1.592349e+01 1.592593e+01 1.432129e+01 1.315139e+01 6.781006e-02 1.050524e-01 1.298998e-01 2.267439e-01 3.542661e-01 4.383018e-01 5.370697e-01 5.993239e-01 6.915287e-01 6.986535e-01 6.796483e-01 6.305088e-01 5.669654e-01 1.161098e-03 1.657286e-02 2.387469e-02 4.180791e-02 6.374202e-02 8.113146e-02 9.978622e-02 1.106358e-01 1.263045e-01 1.296352e-01 1.256656e-01 1.164740e-01 1.046425e-01 1.684739e-04
<GCONST> 3.899919e+01
<STATE> 4
<MEAN> 39
 -1.512167e+01 -4.244256e+00 -5.096268e+00 -3.049982e+00 -2.910007e+00 -1.643448e+00 -1.869132e+00 -1.649586e+00 -1.642348e+00 -1.129618e+00 -8.474361e-01 -8.197793e-01 2.487410e+01 9.811230e-04 -3.013976e-04 2.812432e-05 -1.117286e-03 -1.110297e-03 -1.292818e-03 4.212286e-04 -1.143211e-03 -1.027634e-03 -1.047270e-03 5.306862e-04 -1.542135e-03 -8.672260e-05 7.939294e-05 1.016821e-04 -2.656159e-04 -3.759189e-04 -8.241944e-05 4.160965e-04 -1.386699e-04 1.968596e-04 1.056659e-05 -8.453516e-04 -8.895954e-04 2.162693e-04 -3.654439e-06
<VARIANCE> 39
 5.187943e+00 3.173079e+00 5.260576e+00 9.595466e+00 1.000253e+01 1.222492e+01 1.367008e+01 1.699020e+01 1.592349e+01 1.592593e+01 1.432129e+01 1.315139e+01 6.781006e-02 1.050524e-01 1.298998e-01 2.267439e-01 3.542661e-01 4.383018e-01 5.370697e-01 5.993239e-01 6.915287e-01 6.986535e-01 6.796483e-01 6.305088e-01 5.669654e-01 1.161098e-03 1.657286e-02 2.387469e-02 4.180791e-02 6.374202e-02 8.113146e-02 9.978622e-02 1.106358e-01 1.263045e-01 1.296352e-01 1.256656e-01 1.164740e-01 1.046425e-01 1.684739e-04
<GCONST> 3.899919e+01
<TRANSP> 5
 0.000000e+00 1.000000e+00 0.000000e+00 0.000000e+00 0.000000e+00
 0.000000e+00 6.000000e-01 4.000000e-01 0.000000e+00 0.000000e+00
 0.000000e+00 0.000000e+00 6.000000e-01 4.000000e-01 0.000000e+00
 0.000000e+00 0.000000e+00 0.000000e+00 6.000000e-01 4.000000e-01
 0.000000e+00 0.000000e+00 0.000000e+00 0.000000e+00 0.000000e+00
<ENDHMM>
~h "eh"
<BEGINHMM>
<NUMSTATES> 5
<STATE> 2
<MEAN> 39
 -1.512167e+01 -4.244256e+00 -5.096268e+00 -3.049982e+00 -2.910007e+00 -1.643448e+00 -1.869132e+00 -1.649586e+00 -1.642348e+00 -1.129618e+00 -8.474361e-01 -8.197793e-01 2.487410e+01 9.811230e-04 -3.013976e-04 2.812432e-05 -1.117286e-03 -1.110297e-03 -1.292818e-03 4.212286e-04 -1.143211e-03 -1.027634e-03 -1.047270e-03 5.306862e-04 -1.542135e-03 -8.672260e-05 7.939294e-05 1.016821e-04 -2.656159e-04 -3.759189e-04 -8.241944e-05 4.160965e-04 -1.386699e-04 1.968596e-04 1.056659e-05 -8.453516e-04 -8.895954e-04 2.162693e-04 -3.654439e-06
<VARIANCE> 39
 5.187943e+00 3.173079e+00 5.260576e+00 9.595466e+00 1.000253e+01 1.222492e+01 1.367008e+01 1.699020e+01 1.592349e+01 1.592593e+01 1.432129e+01 1.315139e+01 6.781006e-02 1.050524e-01 1.298998e-01 2.267439e-01 3.542661e-01 4.383018e-01 5.370697e-01 5.993239e-01 6.915287e-01 6.986535e-01 6.796483e-01 6.305088e-01 5.669654e-01 1.161098e-03 1.657286e-02 2.387469e-02 4.180791e-02 6.374202e-02 8.113146e-02 9.978622e-02 1.106358e-01 1.263045e-01 1.296352e-01 1.256656e-01 1.164740e-01 1.046425e-01 1.684739e-04
<GCONST> 3.899919e+01
<STATE> 3
<MEAN> 39
 -1.512167e+01 -4.244256e+00 -5.096268e+00 -3.049982e+00 -2.910007e+00 -1.643448e+00 -1.869132e+00 -1.649586e+00 -1.642348e+00 -1.129618e+00 -8.474361e-01 -8.197793e-01 2.487410e+01 9.811230e-04 -3.013976e-04 2.812432e-05 -1.117286e-03 -1.110297e-03 -1.292818e-03 4.212286e-04 -1.143211e-03 -1.027634e-03 -1.047270e-03 5.306862e-04 -1.542135e-03 -8.672260e-05 7.939294e-05 1.016821e-04 -2.656159e-04 -3.759189e-04 -8.241944e-05 4.160965e-04 -1.386699e-04 1.968596e-04 1.056659e-05 -8.453516e-04 -8.895954e-04 2.162693e-04 -3.654439e-06
<VARIANCE> 39
 5.187943e+00 3.173079e+00 5.260576e+00 9.595466e+00 1.000253e+01 1.222492e+01 1.367008e+01 1.699020e+01 1.592349e+01 1.592593e+01 1.432129e+01 1.315139e+01 6.781006e-02 1.050524e-01 1.298998e-01 2.267439e-01 3.542661e-01 4.383018e-01 5.370697e-01 5.993239e-01 6.915287e-01 6.986535e-01 6.796483e-01 6.305088e-01 5.669654e-01 1.161098e-03 1.657286e-02 2.387469e-02 4.180791e-02 6.374202e-02 8.113146e-02 9.978622e-02 1.106358e-01 1.263045e-01 1.296352e-01 1.256656e-01 1.164740e-01 1.046425e-01 1.684739e-04
<GCONST> 3.899919e+01
<STATE> 4
<MEAN> 39
 -1.512167e+01 -4.244256e+00 -5.096268e+00 -3.049982e+00 -2.910007e+00 -1.643448e+00 -1.869132e+00 -1.649586e+00 -1.642348e+00 -1.129618e+00 -8.474361e-01 -8.197793e-01 2.487410e+01 9.811230e-04 -3.013976e-04 2.812432e-05 -1.117286e-03 -1.110297e-03 -1.292818e-03 4.212286e-04 -1.143211e-03 -1.027634e-03 -1.047270e-03 5.306862e-04 -1.542135e-03 -8.672260e-05 7.939294e-05 1.016821e-04 -2.656159e-04 -3.759189e-04 -8.241944e-05 4.160965e-04 -1.386699e-04 1.968596e-04 1.056659e-05 -8.453516e-04 -8.895954e-04 2.162693e-04 -3.654439e-06
<VARIANCE> 39
 5.187943e+00 3.173079e+00 5.260576e+00 9.595466e+00 1.000253e+01 1.222492e+01 1.367008e+01 1.699020e+01 1.592349e+01 1.592593e+01 1.432129e+01 1.315139e+01 6.781006e-02 1.050524e-01 1.298998e-01 2.267439e-01 3.542661e-01 4.383018e-01 5.370697e-01 5.993239e-01 6.915287e-01 6.986535e-01 6.796483e-01 6.305088e-01 5.669654e-01 1.161098e-03 1.657286e-02 2.387469e-02 4.180791e-02 6.374202e-02 8.113146e-02 9.978622e-02 1.106358e-01 1.263045e-01 1.296352e-01 1.256656e-01 1.164740e-01 1.046425e-01 1.684739e-04
<GCONST> 3.899919e+01
<TRANSP> 5
 0.000000e+00 1.000000e+00 0.000000e+00 0.000000e+00 0.000000e+00
 0.000000e+00 6.000000e-01 4.000000e-01 0.000000e+00 0.000000e+00
 0.000000e+00 0.000000e+00 6.000000e-01 4.000000e-01 0.000000e+00
 0.000000e+00 0.000000e+00 0.000000e+00 6.000000e-01 4.000000e-01
 0.000000e+00 0.000000e+00 0.000000e+00 0.000000e+00 0.000000e+00
<ENDHMM>
~h "ax"
<BEGINHMM>
<NUMSTATES> 5
<STATE> 2
<MEAN> 39
 -1.512167e+01 -4.244256e+00 -5.096268e+00 -3.049982e+00 -2.910007e+00 -1.643448e+00 -1.869132e+00 -1.649586e+00 -1.642348e+00 -1.129618e+00 -8.474361e-01 -8.197793e-01 2.487410e+01 9.811230e-04 -3.013976e-04 2.812432e-05 -1.117286e-03 -1.110297e-03 -1.292818e-03 4.212286e-04 -1.143211e-03 -1.027634e-03 -1.047270e-03 5.306862e-04 -1.542135e-03 -8.672260e-05 7.939294e-05 1.016821e-04 -2.656159e-04 -3.759189e-04 -8.241944e-05 4.160965e-04 -1.386699e-04 1.968596e-04 1.056659e-05 -8.453516e-04 -8.895954e-04 2.162693e-04 -3.654439e-06
<VARIANCE> 39
 5.187943e+00 3.173079e+00 5.260576e+00 9.595466e+00 1.000253e+01 1.222492e+01 1.367008e+01 1.699020e+01 1.592349e+01 1.592593e+01 1.432129e+01 1.315139e+01 6.781006e-02 1.050524e-01 1.298998e-01 2.267439e-01 3.542661e-01 4.383018e-01 5.370697e-01 5.993239e-01 6.915287e-01 6.986535e-01 6.796483e-01 6.305088e-01 5.669654e-01 1.161098e-03 1.657286e-02 2.387469e-02 4.180791e-02 6.374202e-02 8.113146e-02 9.978622e-02 1.106358e-01 1.263045e-01 1.296352e-01 1.256656e-01 1.164740e-01 1.046425e-01 1.684739e-04
<GCONST> 3.899919e+01
<STATE> 3
<MEAN> 39
 -1.512167e+01 -4.244256e+00 -5.096268e+00 -3.049982e+00 -2.910007e+00 -1.643448e+00 -1.869132e+00 -1.649586e+00 -1.642348e+00 -1.129618e+00 -8.474361e-01 -8.197793e-01 2.487410e+01 9.811230e-04 -3.013976e-04 2.812432e-05 -1.117286e-03 -1.110297e-03 -1.292818e-03 4.212286e-04 -1.143211e-03 -1.027634e-03 -1.047270e-03 5.306862e-04 -1.542135e-03 -8.672260e-05 7.939294e-05 1.016821e-04 -2.656159e-04 -3.759189e-04 -8.241944e-05 4.160965e-04 -1.386699e-04 1.968596e-04 1.056659e-05 -8.453516e-04 -8.895954e-04 2.162693e-04 -3.654439e-06
<VARIANCE> 39
 5.187943e+00 3.173079e+00 5.260576e+00 9.595466e+00 1.000253e+01 1.222492e+01 1.367008e+01 1.699020e+01 1.592349e+01 1.592593e+01 1.432129e+01 1.315139e+01 6.781006e-02 1.050524e-01 1.298998e-01 2.267439e-01 3.542661e-01 4.383018e-01 5.370697e-01 5.993239e-01 6.915287e-01 6.986535e-01 6.796483e-01 6.305088e-01 5.669654e-01 1.161098e-03 1.657286e-02 2.387469e-02 4.180791e-02 6.374202e-02 8.113146e-02 9.978622e-02 1.106358e-01 1.263045e-01 1.296352e-01 1.256656e-01 1.164740e-01 1.046425e-01 1.684739e-04
<GCONST> 3.899919e+01
<STATE> 4
<MEAN> 39
 -1.512167e+01 -4.244256e+00 -5.096268e+00 -3.049982e+00 -2.910007e+00 -1.643448e+00 -1.869132e+00 -1.649586e+00 -1.642348e+00 -1.129618e+00 -8.474361e-01 -8.197793e-01 2.487410e+01 9.811230e-04 -3.013976e-04 2.812432e-05 -1.117286e-03 -1.110297e-03 -1.292818e-03 4.212286e-04 -1.143211e-03 -1.027634e-03 -1.047270e-03 5.306862e-04 -1.542135e-03 -8.672260e-05 7.939294e-05 1.016821e-04 -2.656159e-04 -3.759189e-04 -8.241944e-05 4.160965e-04 -1.386699e-04 1.968596e-04 1.056659e-05 -8.453516e-04 -8.895954e-04 2.162693e-04 -3.654439e-06
<VARIANCE> 39
 5.187943e+00 3.173079e+00 5.260576e+00 9.595466e+00 1.000253e+01 1.222492e+01 1.367008e+01 1.699020e+01 1.592349e+01 1.592593e+01 1.432129e+01 1.315139e+01 6.781006e-02 1.050524e-01 1.298998e-01 2.267439e-01 3.542661e-01 4.383018e-01 5.370697e-01 5.993239e-01 6.915287e-01 6.986535e-01 6.796483e-01 6.305088e-01 5.669654e-01 1.161098e-03 1.657286e-02 2.387469e-02 4.180791e-02 6.374202e-02 8.113146e-02 9.978622e-02 1.106358e-01 1.263045e-01 1.296352e-01 1.256656e-01 1.164740e-01 1.046425e-01 1.684739e-04
<GCONST> 3.899919e+01
<TRANSP> 5
 0.000000e+00 1.000000e+00 0.000000e+00 0.000000e+00 0.000000e+00
 0.000000e+00 6.000000e-01 4.000000e-01 0.000000e+00 0.000000e+00
 0.000000e+00 0.000000e+00 6.000000e-01 4.000000e-01 0.000000e+00
 0.000000e+00 0.000000e+00 0.000000e+00 6.000000e-01 4.000000e-01
 0.000000e+00 0.000000e+00 0.000000e+00 0.000000e+00 0.000000e+00
<ENDHMM>
~h "ih"
<BEGINHMM>
<NUMSTATES> 5
<STATE> 2
<MEAN> 39
 -1.512167e+01 -4.244256e+00 -5.096268e+00 -3.049982e+00 -2.910007e+00 -1.643448e+00 -1.869132e+00 -1.649586e+00 -1.642348e+00 -1.129618e+00 -8.474361e-01 -8.197793e-01 2.487410e+01 9.811230e-04 -3.013976e-04 2.812432e-05 -1.117286e-03 -1.110297e-03 -1.292818e-03 4.212286e-04 -1.143211e-03 -1.027634e-03 -1.047270e-03 5.306862e-04 -1.542135e-03 -8.672260e-05 7.939294e-05 1.016821e-04 -2.656159e-04 -3.759189e-04 -8.241944e-05 4.160965e-04 -1.386699e-04 1.968596e-04 1.056659e-05 -8.453516e-04 -8.895954e-04 2.162693e-04 -3.654439e-06
<VARIANCE> 39
 5.187943e+00 3.173079e+00 5.260576e+00 9.595466e+00 1.000253e+01 1.222492e+01 1.367008e+01 1.699020e+01 1.592349e+01 1.592593e+01 1.432129e+01 1.315139e+01 6.781006e-02 1.050524e-01 1.298998e-01 2.267439e-01 3.542661e-01 4.383018e-01 5.370697e-01 5.993239e-01 6.915287e-01 6.986535e-01 6.796483e-01 6.305088e-01 5.669654e-01 1.161098e-03 1.657286e-02 2.387469e-02 4.180791e-02 6.374202e-02 8.113146e-02 9.978622e-02 1.106358e-01 1.263045e-01 1.296352e-01 1.256656e-01 1.164740e-01 1.046425e-01 1.684739e-04
<GCONST> 3.899919e+01
<STATE> 3
<MEAN> 39
 -1.512167e+01 -4.244256e+00 -5.096268e+00 -3.049982e+00 -2.910007e+00 -1.643448e+00 -1.869132e+00 -1.649586e+00 -1.642348e+00 -1.129618e+00 -8.474361e-01 -8.197793e-01 2.487410e+01 9.811230e-04 -3.013976e-04 2.812432e-05 -1.117286e-03 -1.110297e-03 -1.292818e-03 4.212286e-04 -1.143211e-03 -1.027634e-03 -1.047270e-03 5.306862e-04 -1.542135e-03 -8.672260e-05 7.939294e-05 1.016821e-04 -2.656159e-04 -3.759189e-04 -8.241944e-05 4.160965e-04 -1.386699e-04 1.968596e-04 1.056659e-05 -8.453516e-04 -8.895954e-04 2.162693e-04 -3.654439e-06
<VARIANCE> 39
 5.187943e+00 3.173079e+00 5.260576e+00 9.595466e+00 1.000253e+01 1.222492e+01 1.367008e+01 1.699020e+01 1.592349e+01 1.592593e+01 1.432129e+01 1.315139e+01 6.781006e-02 1.050524e-01 1.298998e-01 2.267439e-01 3.542661e-01 4.383018e-01 5.370697e-01 5.993239e-01 6.915287e-01 6.986535e-01 6.796483e-01 6.305088e-01 5.669654e-01 1.161098e-03 1.657286e-02 2.387469e-02 4.180791e-02 6.374202e-02 8.113146e-02 9.978622e-02 1.106358e-01 1.263045e-01 1.296352e-01 1.256656e-01 1.164740e-01 1.046425e-01 1.684739e-04
<GCONST> 3.899919e+01
<STATE> 4
<MEAN> 39
 -1.512167e+01 -4.244256e+00 -5.096268e+00 -3.049982e+00 -2.910007e+00 -1.643448e+00 -1.869132e+00 -1.649586e+00 -1.642348e+00 -1.129618e+00 -8.474361e-01 -8.197793e-01 2.487410e+01 9.811230e-04 -3.013976e-04 2.812432e-05 -1.117286e-03 -1.110297e-03 -1.292818e-03 4.212286e-04 -1.143211e-03 -1.027634e-03 -1.047270e-03 5.306862e-04 -1.542135e-03 -8.672260e-05 7.939294e-05 1.016821e-04 -2.656159e-04 -3.759189e-04 -8.241944e-05 4.160965e-04 -1.386699e-04 1.968596e-04 1.056659e-05 -8.453516e-04 -8.895954e-04 2.162693e-04 -3.654439e-06
<VARIANCE> 39
 5.187943e+00 3.173079e+00 5.260576e+00 9.595466e+00 1.000253e+01 1.222492e+01 1.367008e+01 1.699020e+01 1.592349e+01 1.592593e+01 1.432129e+01 1.315139e+01 6.781006e-02 1.050524e-01 1.298998e-01 2.267439e-01 3.542661e-01 4.383018e-01 5.370697e-01 5.993239e-01 6.915287e-01 6.986535e-01 6.796483e-01 6.305088e-01 5.669654e-01 1.161098e-03 1.657286e-02 2.387469e-02 4.180791e-02 6.374202e-02 8.113146e-02 9.978622e-02 1.106358e-01 1.263045e-01 1.296352e-01 1.256656e-01 1.164740e-01 1.046425e-01 1.684739e-04
<GCONST> 3.899919e+01
<TRANSP> 5
 0.000000e+00 1.000000e+00 0.000000e+00 0.000000e+00 0.000000e+00
 0.000000e+00 6.000000e-01 4.000000e-01 0.000000e+00 0.000000e+00
 0.000000e+00 0.000000e+00 6.000000e-01 4.000000e-01 0.000000e+00
 0.000000e+00 0.000000e+00 0.000000e+00 6.000000e-01 4.000000e-01
 0.000000e+00 0.000000e+00 0.000000e+00 0.000000e+00 0.000000e+00
<ENDHMM>
~h "k"
<BEGINHMM>
<NUMSTATES> 5
<STATE> 2
<MEAN> 39
 -1.512167e+01 -4.244256e+00 -5.096268e+00 -3.049982e+00 -2.910007e+00 -1.643448e+00 -1.869132e+00 -1.649586e+00 -1.642348e+00 -1.129618e+00 -8.474361e-01 -8.197793e-01 2.487410e+01 9.811230e-04 -3.013976e-04 2.812432e-05 -1.117286e-03 -1.110297e-03 -1.292818e-03 4.212286e-04 -1.143211e-03 -1.027634e-03 -1.047270e-03 5.306862e-04 -1.542135e-03 -8.672260e-05 7.939294e-05 1.016821e-04 -2.656159e-04 -3.759189e-04 -8.241944e-05 4.160965e-04 -1.386699e-04 1.968596e-04 1.056659e-05 -8.453516e-04 -8.895954e-04 2.162693e-04 -3.654439e-06
<VARIANCE> 39
 5.187943e+00 3.173079e+00 5.260576e+00 9.595466e+00 1.000253e+01 1.222492e+01 1.367008e+01 1.699020e+01 1.592349e+01 1.592593e+01 1.432129e+01 1.315139e+01 6.781006e-02 1.050524e-01 1.298998e-01 2.267439e-01 3.542661e-01 4.383018e-01 5.370697e-01 5.993239e-01 6.915287e-01 6.986535e-01 6.796483e-01 6.305088e-01 5.669654e-01 1.161098e-03 1.657286e-02 2.387469e-02 4.180791e-02 6.374202e-02 8.113146e-02 9.978622e-02 1.106358e-01 1.263045e-01 1.296352e-01 1.256656e-01 1.164740e-01 1.046425e-01 1.684739e-04
<GCONST> 3.899919e+01
<STATE> 3
<MEAN> 39
 -1.512167e+01 -4.244256e+00 -5.096268e+00 -3.049982e+00 -2.910007e+00 -1.643448e+00 -1.869132e+00 -1.649586e+00 -1.642348e+00 -1.129618e+00 -8.474361e-01 -8.197793e-01 2.487410e+01 9.811230e-04 -3.013976e-04 2.812432e-05 -1.117286e-03 -1.110297e-03 -1.292818e-03 4.212286e-04 -1.143211e-03 -1.027634e-03 -1.047270e-03 5.306862e-04 -1.542135e-03 -8.672260e-05 7.939294e-05 1.016821e-04 -2.656159e-04 -3.759189e-04 -8.241944e-05 4.160965e-04 -1.386699e-04 1.968596e-04 1.056659e-05 -8.453516e-04 -8.895954e-04 2.162693e-04 -3.654439e-06
<VARIANCE> 39
 5.187943e+00 3.173079e+00 5.260576e+00 9.595466e+00 1.000253e+01 1.222492e+01 1.367008e+01 1.699020e+01 1.592349e+01 1.592593e+01 1.432129e+01 1.315139e+01 6.781006e-02 1.050524e-01 1.298998e-01 2.267439e-01 3.542661e-01 4.383018e-01 5.370697e-01 5.993239e-01 6.915287e-01 6.986535e-01 6.796483e-01 6.305088e-01 5.669654e-01 1.161098e-03 1.657286e-02 2.387469e-02 4.180791e-02 6.374202e-02 8.113146e-02 9.978622e-02 1.106358e-01 1.263045e-01 1.296352e-01 1.256656e-01 1.164740e-01 1.046425e-01 1.684739e-04
<GCONST> 3.899919e+01
<STATE> 4
<MEAN> 39
 -1.512167e+01 -4.244256e+00 -5.096268e+00 -3.049982e+00 -2.910007e+00 -1.643448e+00 -1.869132e+00 -1.649586e+00 -1.642348e+00 -1.129618e+00 -8.474361e-01 -8.197793e-01 2.487410e+01 9.811230e-04 -3.013976e-04 2.812432e-05 -1.117286e-03 -1.110297e-03 -1.292818e-03 4.212286e-04 -1.143211e-03 -1.027634e-03 -1.047270e-03 5.306862e-04 -1.542135e-03 -8.672260e-05 7.939294e-05 1.016821e-04 -2.656159e-04 -3.759189e-04 -8.241944e-05 4.160965e-04 -1.386699e-04 1.968596e-04 1.056659e-05 -8.453516e-04 -8.895954e-04 2.162693e-04 -3.654439e-06
<VARIANCE> 39
 5.187943e+00 3.173079e+00 5.260576e+00 9.595466e+00 1.000253e+01 1.222492e+01 1.367008e+01 1.699020e+01 1.592349e+01 1.592593e+01 1.432129e+01 1.315139e+01 6.781006e-02 1.050524e-01 1.298998e-01 2.267439e-01 3.542661e-01 4.383018e-01 5.370697e-01 5.993239e-01 6.915287e-01 6.986535e-01 6.796483e-01 6.305088e-01 5.669654e-01 1.161098e-03 1.657286e-02 2.387469e-02 4.180791e-02 6.374202e-02 8.113146e-02 9.978622e-02 1.106358e-01 1.263045e-01 1.296352e-01 1.256656e-01 1.164740e-01 1.046425e-01 1.684739e-04
<GCONST> 3.899919e+01
<TRANSP> 5
 0.000000e+00 1.000000e+00 0.000000e+00 0.000000e+00 0.000000e+00
 0.000000e+00 6.000000e-01 4.000000e-01 0.000000e+00 0.000000e+00
 0.000000e+00 0.000000e+00 6.000000e-01 4.000000e-01 0.000000e+00
 0.000000e+00 0.000000e+00 0.000000e+00 6.000000e-01 4.000000e-01
 0.000000e+00 0.000000e+00 0.000000e+00 0.000000e+00 0.000000e+00
<ENDHMM>
~h "th"
<BEGINHMM>
<NUMSTATES> 5
<STATE> 2
<MEAN> 39
 -1.512167e+01 -4.244256e+00 -5.096268e+00 -3.049982e+00 -2.910007e+00 -1.643448e+00 -1.869132e+00 -1.649586e+00 -1.642348e+00 -1.129618e+00 -8.474361e-01 -8.197793e-01 2.487410e+01 9.811230e-04 -3.013976e-04 2.812432e-05 -1.117286e-03 -1.110297e-03 -1.292818e-03 4.212286e-04 -1.143211e-03 -1.027634e-03 -1.047270e-03 5.306862e-04 -1.542135e-03 -8.672260e-05 7.939294e-05 1.016821e-04 -2.656159e-04 -3.759189e-04 -8.241944e-05 4.160965e-04 -1.386699e-04 1.968596e-04 1.056659e-05 -8.453516e-04 -8.895954e-04 2.162693e-04 -3.654439e-06
<VARIANCE> 39
 5.187943e+00 3.173079e+00 5.260576e+00 9.595466e+00 1.000253e+01 1.222492e+01 1.367008e+01 1.699020e+01 1.592349e+01 1.592593e+01 1.432129e+01 1.315139e+01 6.781006e-02 1.050524e-01 1.298998e-01 2.267439e-01 3.542661e-01 4.383018e-01 5.370697e-01 5.993239e-01 6.915287e-01 6.986535e-01 6.796483e-01 6.305088e-01 5.669654e-01 1.161098e-03 1.657286e-02 2.387469e-02 4.180791e-02 6.374202e-02 8.113146e-02 9.978622e-02 1.106358e-01 1.263045e-01 1.296352e-01 1.256656e-01 1.164740e-01 1.046425e-01 1.684739e-04
<GCONST> 3.899919e+01
<STATE> 3
<MEAN> 39
 -1.512167e+01 -4.244256e+00 -5.096268e+00 -3.049982e+00 -2.910007e+00 -1.643448e+00 -1.869132e+00 -1.649586e+00 -1.642348e+00 -1.129618e+00 -8.474361e-01 -8.197793e-01 2.487410e+01 9.811230e-04 -3.013976e-04 2.812432e-05 -1.117286e-03 -1.110297e-03 -1.292818e-03 4.212286e-04 -1.143211e-03 -1.027634e-03 -1.047270e-03 5.306862e-04 -1.542135e-03 -8.672260e-05 7.939294e-05 1.016821e-04 -2.656159e-04 -3.759189e-04 -8.241944e-05 4.160965e-04 -1.386699e-04 1.968596e-04 1.056659e-05 -8.453516e-04 -8.895954e-04 2.162693e-04 -3.654439e-06
<VARIANCE> 39
 5.187943e+00 3.173079e+00 5.260576e+00 9.595466e+00 1.000253e+01 1.222492e+01 1.367008e+01 1.699020e+01 1.592349e+01 1.592593e+01 1.432129e+01 1.315139e+01 6.781006e-02 1.050524e-01 1.298998e-01 2.267439e-01 3.542661e-01 4.383018e-01 5.370697e-01 5.993239e-01 6.915287e-01 6.986535e-01 6.796483e-01 6.305088e-01 5.669654e-01 1.161098e-03 1.657286e-02 2.387469e-02 4.180791e-02 6.374202e-02 8.113146e-02 9.978622e-02 1.106358e-01 1.263045e-01 1.296352e-01 1.256656e-01 1.164740e-01 1.046425e-01 1.684739e-04
<GCONST> 3.899919e+01
<STATE> 4
<MEAN> 39
 -1.512167e+01 -4.244256e+00 -5.096268e+00 -3.049982e+00 -2.910007e+00 -1.643448e+00 -1.869132e+00 -1.649586e+00 -1.642348e+00 -1.129618e+00 -8.474361e-01 -8.197793e-01 2.487410e+01 9.811230e-04 -3.013976e-04 2.812432e-05 -1.117286e-03 -1.110297e-03 -1.292818e-03 4.212286e-04 -1.143211e-03 -1.027634e-03 -1.047270e-03 5.306862e-04 -1.542135e-03 -8.672260e-05 7.939294e-05 1.016821e-04 -2.656159e-04 -3.759189e-04 -8.241944e-05 4.160965e-04 -1.386699e-04 1.968596e-04 1.056659e-05 -8.453516e-04 -8.895954e-04 2.162693e-04 -3.654439e-06
<VARIANCE> 39
 5.187943e+00 3.173079e+00 5.260576e+00 9.595466e+00 1.000253e+01 1.222492e+01 1.367008e+01 1.699020e+01 1.592349e+01 1.592593e+01 1.432129e+01 1.315139e+01 6.781006e-02 1.050524e-01 1.298998e-01 2.267439e-01 3.542661e-01 4.383018e-01 5.370697e-01 5.993239e-01 6.915287e-01 6.986535e-01 6.796483e-01 6.305088e-01 5.669654e-01 1.161098e-03 1.657286e-02 2.387469e-02 4.180791e-02 6.374202e-02 8.113146e-02 9.978622e-02 1.106358e-01 1.263045e-01 1.296352e-01 1.256656e-01 1.164740e-01 1.046425e-01 1.684739e-04
<GCONST> 3.899919e+01
<TRANSP> 5
 0.000000e+00 1.000000e+00 0.000000e+00 0.000000e+00 0.000000e+00
 0.000000e+00 6.000000e-01 4.000000e-01 0.000000e+00 0.000000e+00
 0.000000e+00 0.000000e+00 6.000000e-01 4.000000e-01 0.000000e+00
 0.000000e+00 0.000000e+00 0.000000e+00 6.000000e-01 4.000000e-01
 0.000000e+00 0.000000e+00 0.000000e+00 0.000000e+00 0.000000e+00
<ENDHMM>
~h "iy"
<BEGINHMM>
<NUMSTATES> 5
<STATE> 2
<MEAN> 39
 -1.512167e+01 -4.244256e+00 -5.096268e+00 -3.049982e+00 -2.910007e+00 -1.643448e+00 -1.869132e+00 -1.649586e+00 -1.642348e+00 -1.129618e+00 -8.474361e-01 -8.197793e-01 2.487410e+01 9.811230e-04 -3.013976e-04 2.812432e-05 -1.117286e-03 -1.110297e-03 -1.292818e-03 4.212286e-04 -1.143211e-03 -1.027634e-03 -1.047270e-03 5.306862e-04 -1.542135e-03 -8.672260e-05 7.939294e-05 1.016821e-04 -2.656159e-04 -3.759189e-04 -8.241944e-05 4.160965e-04 -1.386699e-04 1.968596e-04 1.056659e-05 -8.453516e-04 -8.895954e-04 2.162693e-04 -3.654439e-06
<VARIANCE> 39
 5.187943e+00 3.173079e+00 5.260576e+00 9.595466e+00 1.000253e+01 1.222492e+01 1.367008e+01 1.699020e+01 1.592349e+01 1.592593e+01 1.432129e+01 1.315139e+01 6.781006e-02 1.050524e-01 1.298998e-01 2.267439e-01 3.542661e-01 4.383018e-01 5.370697e-01 5.993239e-01 6.915287e-01 6.986535e-01 6.796483e-01 6.305088e-01 5.669654e-01 1.161098e-03 1.657286e-02 2.387469e-02 4.180791e-02 6.374202e-02 8.113146e-02 9.978622e-02 1.106358e-01 1.263045e-01 1.296352e-01 1.256656e-01 1.164740e-01 1.046425e-01 1.684739e-04
<GCONST> 3.899919e+01
<STATE> 3
<MEAN> 39
 -1.512167e+01 -4.244256e+00 -5.096268e+00 -3.049982e+00 -2.910007e+00 -1.643448e+00 -1.869132e+00 -1.649586e+00 -1.642348e+00 -1.129618e+00 -8.474361e-01 -8.197793e-01 2.487410e+01 9.811230e-04 -3.013976e-04 2.812432e-05 -1.117286e-03 -1.110297e-03 -1.292818e-03 4.212286e-04 -1.143211e-03 -1.027634e-03 -1.047270e-03 5.306862e-04 -1.542135e-03 -8.672260e-05 7.939294e-05 1.016821e-04 -2.656159e-04 -3.759189e-04 -8.241944e-05 4.160965e-04 -1.386699e-04 1.968596e-04 1.056659e-05 -8.453516e-04 -8.895954e-04 2.162693e-04 -3.654439e-06
<VARIANCE> 39
 5.187943e+00 3.173079e+00 5.260576e+00 9.595466e+00 1.000253e+01 1.222492e+01 1.367008e+01 1.699020e+01 1.592349e+01 1.592593e+01 1.432129e+01 1.315139e+01 6.781006e-02 1.050524e-01 1.298998e-01 2.267439e-01 3.542661e-01 4.383018e-01 5.370697e-01 5.993239e-01 6.915287e-01 6.986535e-01 6.796483e-01 6.305088e-01 5.669654e-01 1.161098e-03 1.657286e-02 2.387469e-02 4.180791e-02 6.374202e-02 8.113146e-02 9.978622e-02 1.106358e-01 1.263045e-01 1.296352e-01 1.256656e-01 1.164740e-01 1.046425e-01 1.684739e-04
<GCONST> 3.899919e+01
<STATE> 4
<MEAN> 39
 -1.512167e+01 -4.244256e+00 -5.096268e+00 -3.049982e+00 -2.910007e+00 -1.643448e+00 -1.869132e+00 -1.649586e+00 -1.642348e+00 -1.129618e+00 -8.474361e-01 -8.197793e-01 2.487410e+01 9.811230e-04 -3.013976e-04 2.812432e-05 -1.117286e-03 -1.110297e-03 -1.292818e-03 4.212286e-04 -1.143211e-03 -1.027634e-03 -1.047270e-03 5.306862e-04 -1.542135e-03 -8.672260e-05 7.939294e-05 1.016821e-04 -2.656159e-04 -3.759189e-04 -8.241944e-05 4.160965e-04 -1.386699e-04 1.968596e-04 1.056659e-05 -8.453516e-04 -8.895954e-04 2.162693e-04 -3.654439e-06
<VARIANCE> 39
 5.187943e+00 3.173079e+00 5.260576e+00 9.595466e+00 1.000253e+01 1.222492e+01 1.367008e+01 1.699020e+01 1.592349e+01 1.592593e+01 1.432129e+01 1.315139e+01 6.781006e-02 1.050524e-01 1.298998e-01 2.267439e-01 3.542661e-01 4.383018e-01 5.370697e-01 5.993239e-01 6.915287e-01 6.986535e-01 6.796483e-01 6.305088e-01 5.669654e-01 1.161098e-03 1.657286e-02 2.387469e-02 4.180791e-02 6.374202e-02 8.113146e-02 9.978622e-02 1.106358e-01 1.263045e-01 1.296352e-01 1.256656e-01 1.164740e-01 1.046425e-01 1.684739e-04
<GCONST> 3.899919e+01
<TRANSP> 5
 0.000000e+00 1.000000e+00 0.000000e+00 0.000000e+00 0.000000e+00
 0.000000e+00 6.000000e-01 4.000000e-01 0.000000e+00 0.000000e+00
 0.000000e+00 0.000000e+00 6.000000e-01 4.000000e-01 0.000000e+00
 0.000000e+00 0.000000e+00 0.000000e+00 6.000000e-01 4.000000e-01
 0.000000e+00 0.000000e+00 0.000000e+00 0.000000e+00 0.000000e+00
<ENDHMM>
~h "uw"
<BEGINHMM>
<NUMSTATES> 5
<STATE> 2
<MEAN> 39
 -1.512167e+01 -4.244256e+00 -5.096268e+00 -3.049982e+00 -2.910007e+00 -1.643448e+00 -1.869132e+00 -1.649586e+00 -1.642348e+00 -1.129618e+00 -8.474361e-01 -8.197793e-01 2.487410e+01 9.811230e-04 -3.013976e-04 2.812432e-05 -1.117286e-03 -1.110297e-03 -1.292818e-03 4.212286e-04 -1.143211e-03 -1.027634e-03 -1.047270e-03 5.306862e-04 -1.542135e-03 -8.672260e-05 7.939294e-05 1.016821e-04 -2.656159e-04 -3.759189e-04 -8.241944e-05 4.160965e-04 -1.386699e-04 1.968596e-04 1.056659e-05 -8.453516e-04 -8.895954e-04 2.162693e-04 -3.654439e-06
<VARIANCE> 39
 5.187943e+00 3.173079e+00 5.260576e+00 9.595466e+00 1.000253e+01 1.222492e+01 1.367008e+01 1.699020e+01 1.592349e+01 1.592593e+01 1.432129e+01 1.315139e+01 6.781006e-02 1.050524e-01 1.298998e-01 2.267439e-01 3.542661e-01 4.383018e-01 5.370697e-01 5.993239e-01 6.915287e-01 6.986535e-01 6.796483e-01 6.305088e-01 5.669654e-01 1.161098e-03 1.657286e-02 2.387469e-02 4.180791e-02 6.374202e-02 8.113146e-02 9.978622e-02 1.106358e-01 1.263045e-01 1.296352e-01 1.256656e-01 1.164740e-01 1.046425e-01 1.684739e-04
<GCONST> 3.899919e+01
<STATE> 3
<MEAN> 39
 -1.512167e+01 -4.244256e+00 -5.096268e+00 -3.049982e+00 -2.910007e+00 -1.643448e+00 -1.869132e+00 -1.649586e+00 -1.642348e+00 -1.129618e+00 -8.474361e-01 -8.197793e-01 2.487410e+01 9.811230e-04 -3.013976e-04 2.812432e-05 -1.117286e-03 -1.110297e-03 -1.292818e-03 4.212286e-04 -1.143211e-03 -1.027634e-03 -1.047270e-03 5.306862e-04 -1.542135e-03 -8.672260e-05 7.939294e-05 1.016821e-04 -2.656159e-04 -3.759189e-04 -8.241944e-05 4.160965e-04 -1.386699e-04 1.968596e-04 1.056659e-05 -8.453516e-04 -8.895954e-04 2.162693e-04 -3.654439e-06
<VARIANCE> 39
 5.187943e+00 3.173079e+00 5.260576e+00 9.595466e+00 1.000253e+01 1.222492e+01 1.367008e+01 1.699020e+01 1.592349e+01 1.592593e+01 1.432129e+01 1.315139e+01 6.781006e-02 1.050524e-01 1.298998e-01 2.267439e-01 3.542661e-01 4.383018e-01 5.370697e-01 5.993239e-01 6.915287e-01 6.986535e-01 6.796483e-01 6.305088e-01 5.669654e-01 1.161098e-03 1.657286e-02 2.387469e-02 4.180791e-02 6.374202e-02 8.113146e-02 9.978622e-02 1.106358e-01 1.263045e-01 1.296352e-01 1.256656e-01 1.164740e-01 1.046425e-01 1.684739e-04
<GCONST> 3.899919e+01
<STATE> 4
<MEAN> 39
 -1.512167e+01 -4.244256e+00 -5.096268e+00 -3.049982e+00 -2.910007e+00 -1.643448e+00 -1.869132e+00 -1.649586e+00 -1.642348e+00 -1.129618e+00 -8.474361e-01 -8.197793e-01 2.487410e+01 9.811230e-04 -3.013976e-04 2.812432e-05 -1.117286e-03 -1.110297e-03 -1.292818e-03 4.212286e-04 -1.143211e-03 -1.027634e-03 -1.047270e-03 5.306862e-04 -1.542135e-03 -8.672260e-05 7.939294e-05 1.016821e-04 -2.656159e-04 -3.759189e-04 -8.241944e-05 4.160965e-04 -1.386699e-04 1.968596e-04 1.056659e-05 -8.453516e-04 -8.895954e-04 2.162693e-04 -3.654439e-06
<VARIANCE> 39
 5.187943e+00 3.173079e+00 5.260576e+00 9.595466e+00 1.000253e+01 1.222492e+01 1.367008e+01 1.699020e+01 1.592349e+01 1.592593e+01 1.432129e+01 1.315139e+01 6.781006e-02 1.050524e-01 1.298998e-01 2.267439e-01 3.542661e-01 4.383018e-01 5.370697e-01 5.993239e-01 6.915287e-01 6.986535e-01 6.796483e-01 6.305088e-01 5.669654e-01 1.161098e-03 1.657286e-02 2.387469e-02 4.180791e-02 6.374202e-02 8.113146e-02 9.978622e-02 1.106358e-01 1.263045e-01 1.296352e-01 1.256656e-01 1.164740e-01 1.046425e-01 1.684739e-04
<GCONST> 3.899919e+01
<TRANSP> 5
 0.000000e+00 1.000000e+00 0.000000e+00 0.000000e+00 0.000000e+00
 0.000000e+00 6.000000e-01 4.000000e-01 0.000000e+00 0.000000e+00
 0.000000e+00 0.000000e+00 6.000000e-01 4.000000e-01 0.000000e+00
 0.000000e+00 0.000000e+00 0.000000e+00 6.000000e-01 4.000000e-01
 0.000000e+00 0.000000e+00 0.000000e+00 0.000000e+00 0.000000e+00
<ENDHMM>
~h "z"
<BEGINHMM>
<NUMSTATES> 5
<STATE> 2
<MEAN> 39
 -1.512167e+01 -4.244256e+00 -5.096268e+00 -3.049982e+00 -2.910007e+00 -1.643448e+00 -1.869132e+00 -1.649586e+00 -1.642348e+00 -1.129618e+00 -8.474361e-01 -8.197793e-01 2.487410e+01 9.811230e-04 -3.013976e-04 2.812432e-05 -1.117286e-03 -1.110297e-03 -1.292818e-03 4.212286e-04 -1.143211e-03 -1.027634e-03 -1.047270e-03 5.306862e-04 -1.542135e-03 -8.672260e-05 7.939294e-05 1.016821e-04 -2.656159e-04 -3.759189e-04 -8.241944e-05 4.160965e-04 -1.386699e-04 1.968596e-04 1.056659e-05 -8.453516e-04 -8.895954e-04 2.162693e-04 -3.654439e-06
<VARIANCE> 39
 5.187943e+00 3.173079e+00 5.260576e+00 9.595466e+00 1.000253e+01 1.222492e+01 1.367008e+01 1.699020e+01 1.592349e+01 1.592593e+01 1.432129e+01 1.315139e+01 6.781006e-02 1.050524e-01 1.298998e-01 2.267439e-01 3.542661e-01 4.383018e-01 5.370697e-01 5.993239e-01 6.915287e-01 6.986535e-01 6.796483e-01 6.305088e-01 5.669654e-01 1.161098e-03 1.657286e-02 2.387469e-02 4.180791e-02 6.374202e-02 8.113146e-02 9.978622e-02 1.106358e-01 1.263045e-01 1.296352e-01 1.256656e-01 1.164740e-01 1.046425e-01 1.684739e-04
<GCONST> 3.899919e+01
<STATE> 3
<MEAN> 39
 -1.512167e+01 -4.244256e+00 -5.096268e+00 -3.049982e+00 -2.910007e+00 -1.643448e+00 -1.869132e+00 -1.649586e+00 -1.642348e+00 -1.129618e+00 -8.474361e-01 -8.197793e-01 2.487410e+01 9.811230e-04 -3.013976e-04 2.812432e-05 -1.117286e-03 -1.110297e-03 -1.292818e-03 4.212286e-04 -1.143211e-03 -1.027634e-03 -1.047270e-03 5.306862e-04 -1.542135e-03 -8.672260e-05 7.939294e-05 1.016821e-04 -2.656159e-04 -3.759189e-04 -8.241944e-05 4.160965e-04 -1.386699e-04 1.968596e-04 1.056659e-05 -8.453516e-04 -8.895954e-04 2.162693e-04 -3.654439e-06
<VARIANCE> 39
 5.187943e+00 3.173079e+00 5.260576e+00 9.595466e+00 1.000253e+01 1.222492e+01 1.367008e+01 1.699020e+01 1.592349e+01 1.592593e+01 1.432129e+01 1.315139e+01 6.781006e-02 1.050524e-01 1.298998e-01 2.267439e-01 3.542661e-01 4.383018e-01 5.370697e-01 5.993239e-01 6.915287e-01 6.986535e-01 6.796483e-01 6.305088e-01 5.669654e-01 1.161098e-03 1.657286e-02 2.387469e-02 4.180791e-02 6.374202e-02 8.113146e-02 9.978622e-02 1.106358e-01 1.263045e-01 1.296352e-01 1.256656e-01 1.164740e-01 1.046425e-01 1.684739e-04
<GCONST> 3.899919e+01
<STATE> 4
<MEAN> 39
 -1.512167e+01 -4.244256e+00 -5.096268e+00 -3.049982e+00 -2.910007e+00 -1.643448e+00 -1.869132e+00 -1.649586e+00 -1.642348e+00 -1.129618e+00 -8.474361e-01 -8.197793e-01 2.487410e+01 9.811230e-04 -3.013976e-04 2.812432e-05 -1.117286e-03 -1.110297e-03 -1.292818e-03 4.212286e-04 -1.143211e-03 -1.027634e-03 -1.047270e-03 5.306862e-04 -1.542135e-03 -8.672260e-05 7.939294e-05 1.016821e-04 -2.656159e-04 -3.759189e-04 -8.241944e-05 4.160965e-04 -1.386699e-04 1.968596e-04 1.056659e-05 -8.453516e-04 -8.895954e-04 2.162693e-04 -3.654439e-06
<VARIANCE> 39
 5.187943e+00 3.173079e+00 5.260576e+00 9.595466e+00 1.000253e+01 1.222492e+01 1.367008e+01 1.699020e+01 1.592349e+01 1.592593e+01 1.432129e+01 1.315139e+01 6.781006e-02 1.050524e-01 1.298998e-01 2.267439e-01 3.542661e-01 4.383018e-01 5.370697e-01 5.993239e-01 6.915287e-01 6.986535e-01 6.796483e-01 6.305088e-01 5.669654e-01 1.161098e-03 1.657286e-02 2.387469e-02 4.180791e-02 6.374202e-02 8.113146e-02 9.978622e-02 1.106358e-01 1.263045e-01 1.296352e-01 1.256656e-01 1.164740e-01 1.046425e-01 1.684739e-04
<GCONST> 3.899919e+01
<TRANSP> 5
 0.000000e+00 1.000000e+00 0.000000e+00 0.000000e+00 0.000000e+00
 0.000000e+00 6.000000e-01 4.000000e-01 0.000000e+00 0.000000e+00
 0.000000e+00 0.000000e+00 6.000000e-01 4.000000e-01 0.000000e+00
 0.000000e+00 0.000000e+00 0.000000e+00 6.000000e-01 4.000000e-01
 0.000000e+00 0.000000e+00 0.000000e+00 0.000000e+00 0.000000e+00
<ENDHMM>
~h "sil"
<BEGINHMM>
<NUMSTATES> 5
<STATE> 2
<MEAN> 39
 -1.512167e+01 -4.244256e+00 -5.096268e+00 -3.049982e+00 -2.910007e+00 -1.643448e+00 -1.869132e+00 -1.649586e+00 -1.642348e+00 -1.129618e+00 -8.474361e-01 -8.197793e-01 2.487410e+01 9.811230e-04 -3.013976e-04 2.812432e-05 -1.117286e-03 -1.110297e-03 -1.292818e-03 4.212286e-04 -1.143211e-03 -1.027634e-03 -1.047270e-03 5.306862e-04 -1.542135e-03 -8.672260e-05 7.939294e-05 1.016821e-04 -2.656159e-04 -3.759189e-04 -8.241944e-05 4.160965e-04 -1.386699e-04 1.968596e-04 1.056659e-05 -8.453516e-04 -8.895954e-04 2.162693e-04 -3.654439e-06
<VARIANCE> 39
 5.187943e+00 3.173079e+00 5.260576e+00 9.595466e+00 1.000253e+01 1.222492e+01 1.367008e+01 1.699020e+01 1.592349e+01 1.592593e+01 1.432129e+01 1.315139e+01 6.781006e-02 1.050524e-01 1.298998e-01 2.267439e-01 3.542661e-01 4.383018e-01 5.370697e-01 5.993239e-01 6.915287e-01 6.986535e-01 6.796483e-01 6.305088e-01 5.669654e-01 1.161098e-03 1.657286e-02 2.387469e-02 4.180791e-02 6.374202e-02 8.113146e-02 9.978622e-02 1.106358e-01 1.263045e-01 1.296352e-01 1.256656e-01 1.164740e-01 1.046425e-01 1.684739e-04
<GCONST> 3.899919e+01
<STATE> 3
<MEAN> 39
 -1.512167e+01 -4.244256e+00 -5.096268e+00 -3.049982e+00 -2.910007e+00 -1.643448e+00 -1.869132e+00 -1.649586e+00 -1.642348e+00 -1.129618e+00 -8.474361e-01 -8.197793e-01 2.487410e+01 9.811230e-04 -3.013976e-04 2.812432e-05 -1.117286e-03 -1.110297e-03 -1.292818e-03 4.212286e-04 -1.143211e-03 -1.027634e-03 -1.047270e-03 5.306862e-04 -1.542135e-03 -8.672260e-05 7.939294e-05 1.016821e-04 -2.656159e-04 -3.759189e-04 -8.241944e-05 4.160965e-04 -1.386699e-04 1.968596e-04 1.056659e-05 -8.453516e-04 -8.895954e-04 2.162693e-04 -3.654439e-06
<VARIANCE> 39
 5.187943e+00 3.173079e+00 5.260576e+00 9.595466e+00 1.000253e+01 1.222492e+01 1.367008e+01 1.699020e+01 1.592349e+01 1.592593e+01 1.432129e+01 1.315139e+01 6.781006e-02 1.050524e-01 1.298998e-01 2.267439e-01 3.542661e-01 4.383018e-01 5.370697e-01 5.993239e-01 6.915287e-01 6.986535e-01 6.796483e-01 6.305088e-01 5.669654e-01 1.161098e-03 1.657286e-02 2.387469e-02 4.180791e-02 6.374202e-02 8.113146e-02 9.978622e-02 1.106358e-01 1.263045e-01 1.296352e-01 1.256656e-01 1.164740e-01 1.046425e-01 1.684739e-04
<GCONST> 3.899919e+01
<STATE> 4
<MEAN> 39
 -1.512167e+01 -4.244256e+00 -5.096268e+00 -3.049982e+00 -2.910007e+00 -1.643448e+00 -1.869132e+00 -1.649586e+00 -1.642348e+00 -1.129618e+00 -8.474361e-01 -8.197793e-01 2.487410e+01 9.811230e-04 -3.013976e-04 2.812432e-05 -1.117286e-03 -1.110297e-03 -1.292818e-03 4.212286e-04 -1.143211e-03 -1.027634e-03 -1.047270e-03 5.306862e-04 -1.542135e-03 -8.672260e-05 7.939294e-05 1.016821e-04 -2.656159e-04 -3.759189e-04 -8.241944e-05 4.160965e-04 -1.386699e-04 1.968596e-04 1.056659e-05 -8.453516e-04 -8.895954e-04 2.162693e-04 -3.654439e-06
<VARIANCE> 39
 5.187943e+00 3.173079e+00 5.260576e+00 9.595466e+00 1.000253e+01 1.222492e+01 1.367008e+01 1.699020e+01 1.592349e+01 1.592593e+01 1.432129e+01 1.315139e+01 6.781006e-02 1.050524e-01 1.298998e-01 2.267439e-01 3.542661e-01 4.383018e-01 5.370697e-01 5.993239e-01 6.915287e-01 6.986535e-01 6.796483e-01 6.305088e-01 5.669654e-01 1.161098e-03 1.657286e-02 2.387469e-02 4.180791e-02 6.374202e-02 8.113146e-02 9.978622e-02 1.106358e-01 1.263045e-01 1.296352e-01 1.256656e-01 1.164740e-01 1.046425e-01 1.684739e-04
<GCONST> 3.899919e+01
<TRANSP> 5
 0.000000e+00 1.000000e+00 0.000000e+00 0.000000e+00 0.000000e+00
 0.000000e+00 6.000000e-01 4.000000e-01 0.000000e+00 0.000000e+00
 0.000000e+00 0.000000e+00 6.000000e-01 4.000000e-01 0.000000e+00
 0.000000e+00 0.000000e+00 0.000000e+00 6.000000e-01 4.000000e-01
 0.000000e+00 0.000000e+00 0.000000e+00 0.000000e+00 0.000000e+00
<ENDHMM>
